svm_type c_svc
kernel_type rbf
gamma 0.037037
nr_class 28
total_sv 269
rho -0.297323 0.0313032 -0.213516 -0.0395709 -0.134445 0.0539825 -0.0046827 -0.0748504 -0.063158 -0.222662 0.0935568 -0.0993407 -0.147481 -7.24536e-006 -0.087353 -0.114943 0.137109 -0.136915 -0.0182267 -0.043681 -0.318455 -0.152012 -0.350004 -0.164233 -0.203209 -0.162585 -0.109578 0.254691 0.0273074 0.233096 0.099099 0.319925 0.301398 0.165077 0.180546 0.00817733 0.317148 0.13165 0.0788351 0.227195 0.139095 0.114363 0.350555 0.0914381 0.209427 0.184627 -0.0985859 0.0834 -0.134097 0.06154 0.0519462 0.0708249 0.118757 -0.229403 -0.0582057 -0.161925 0.0176037 -0.031721 -0.0975954 -0.0866002 -0.247207 0.0591232 -0.128306 -0.177703 -0.0311003 -0.118062 -0.14441 0.106309 -0.166106 -0.0491843 -0.0738701 -0.348084 -0.179675 -0.379087 -0.194417 -0.238222 -0.203621 -0.139425 0.24849 0.0717162 0.381062 0.28899 0.138171 0.158368 -0.017226 0.29515 0.106591 0.0538822 0.203845 0.11517 0.0897987 0.32779 0.0664165 0.186047 0.160332 -0.123428 0.0573454 -0.158985 0.0364306 0.025703 0.0426396 0.0933424 -0.106071 0.289027 0.116323 -0.0411761 -0.0373452 -0.196594 0.13011 -0.0734518 -0.121847 0.0319406 -0.0613735 -0.0899378 0.163322 -0.111493 0.00882015 -0.0164903 -0.294712 -0.125868 -0.324664 -0.138268 -0.171749 -0.138029 -0.0822794 0.181039 0.131588 0.0641544 0.0815258 -0.0897669 0.218956 0.034058 -0.0176778 0.130628 0.0432662 0.0170904 0.262249 -0.00569702 0.11226 0.0877376 -0.193385 -0.0170595 -0.227495 -0.0349697 -0.0515032 -0.0294676 0.0219211 -0.146031 -0.142275 -0.1422 -0.27263 0.0304958 -0.153776 -0.195516 -0.064212 -0.139952 -0.168003 0.0893157 -0.194626 -0.0786906 -0.0960303 -0.369933 -0.204092 -0.39576 -0.211305 -0.257449 -0.215232 -0.156864 -0.0843445 -0.0827508 -0.222744 0.105341 -0.100698 -0.147168 0.00122761 -0.0877876 -0.11584 0.137866 -0.138562 -0.0201028 -0.0438377 -0.317734 -0.151222 -0.349589 -0.164007 -0.197693 -0.164686 -0.108485 0.0102114 -0.159272 0.241823 0.0265903 -0.0817101 0.156522 -0.0213155 -0.0484252 0.216094 -0.0577085 0.0844932 0.0684636 -0.254782 -0.0618209 -0.287549 -0.0998958 -0.119321 -0.0875612 -0.0431947 -0.142619 0.190325 -0.0361557 -0.100154 0.0837666 -0.0387641 0.0326255 0.215017 -0.0711581 0.101926 0.0338979 -0.279944 -0.0908737 -0.305106 -0.116065 -0.143146 -0.110818 -0.0599145 0.309244 0.128938 0.0717281 0.225724 0.131844 0.111327 0.350717 0.0854187 0.216524 0.179067 -0.111712 0.0895662 -0.142153 0.0539491 -0.0327373 0.0760031 0.117334 -0.201134 -0.234363 -0.214342 -0.182576 -0.204111 0.0476363 -0.245325 -0.140057 -0.26258 -0.405617 -0.237925 -0.432271 -0.25096 -0.295314 -0.257766 -0.197084 -0.0515341 0.103317 0.00937105 -0.0176003 0.232193 -0.0403058 0.0875038 0.056906 -0.226147 -0.0505635 -0.259537 -0.0691885 -0.0835599 -0.0746007 -0.0120312 0.147457 0.0609534 0.0344698 0.278731 0.0119281 0.130509 0.105192 -0.233805 0.000662769 -0.32343 -0.0174192 -0.0289185 -0.0118806 0.0395323 -0.0905614 -0.115392 0.137766 -0.171899 -0.0389285 0.00143407 -0.321617 -0.152121 -0.350068 -0.165002 -0.200469 -0.168865 -0.109259 -0.0266558 0.221862 -0.0833998 0.0759815 0.0461342 -0.235404 -0.0602368 -0.269062 -0.0781652 -0.089414 -0.0728141 -0.0214948 0.248291 -0.0233811 0.105258 0.0717211 -0.221661 -0.0346057 -0.24871 -0.051944 -0.0678569 -0.047565 0.00488552 -0.27158 -0.174957 -0.179281 -0.448324 -0.283171 -0.472748 -0.295679 -0.343068 -0.294975 -0.24254 0.106506 0.108024 -0.191711 -0.0116772 -0.222717 -0.0293797 -0.0411576 -0.0238854 0.0277181 -0.0113664 -0.311276 -0.136463 -0.333718 -0.147062 -0.184466 -0.148994 -0.0913828 -0.276448 -0.106235 -0.309185 -0.12273 -0.143769 -0.1202 -0.0661795 0.180454 -0.0467813 0.159079 0.194452 0.177268 0.214425 -0.211641 -0.0181751 -0.0624222 -0.0192966 0.0448026 0.194148 0.183956 0.199507 0.248234 -0.0112985 0.00544813 0.0567934 0.122755 0.0730532 0.0540908
label 2 3 4 5 6 7 8 9 97 98 99 100 101 102 103 104 107 109 110 112 113 114 115 116 119 120 121 122
nr_sv 12 8 12 8 10 6 12 13 11 7 9 13 11 8 19 10 7 8 7 8 19 5 8 5 8 8 8 9
SV
0 0.227688354920167 0.1481349392761339 0.160890252103249 0.1669188679602892 0.09305923847078426 0.1353822839389719 0.1755324515928722 0.1925762859647514 0.1160987404615052 0.2245346823168013 0.1796255808026529 0.2041794635968267 0.1990713371992556 0.2161223226684566 0.180058843549936 0.2689680168542915 0.1889104167855949 0.2155585121453142 0.2068743272980168 0.1586847827827197 0.1310240778231761 0.1557808681794583 0.1991941986240122 0.1299145946363936 0.1286375344671731 0.2003597636515211 1:2 2:3 3:4 4:2 5:1 7:2 8:1 9:1 10:2 11:1 12:5 13:5 16:4 17:2 18:6 19:2 20:4 21:3 22:4 23:4 
0 0.01282580013913752 0 0.08358392447098689 0.004427132664495468 0.07294477082941256 0.003675756682097671 0 0 0 0 0 0 0.0202669978485408 0 0.009339145472006077 0 0 0 0 0 0 0 0 0 0 0 1:2 2:3 3:4 4:2 5:1 6:1 7:1 8:1 9:1 10:2 11:1 12:5 13:5 16:4 17:2 18:5 19:2 20:5 21:3 22:4 23:4 
0.6193652300804229 0.6372545018449384 0.4828176290215281 0.5965206167153522 0.6374708992513761 0.8195662608977927 0.7632193165464941 0.6342735251792475 0.626481591517462 0.6024725000462667 0.8247882555248388 0.6098319164310041 0.5177461319448552 0.6653919442055841 0.5522266923763173 0.5718626864741471 0.6897633127266379 0.5428385302509209 0.6268698477450316 0.644824188198767 0.4231722472801957 0.5934409622223039 0.3937884461115255 0.5058515502774488 0.5926675778530076 0.6475127396365776 0.5526339059196996 1:2 2:2 3:3 4:2 5:1 6:1 7:1 8:1 9:1 10:2 11:1 12:5 13:4 16:4 17:1 18:4 19:3 20:3 21:4 22:3 23:4 
0.9868670151352634 0.6489475306478385 0.5739210884386584 0.6408478321750799 0.5411902286917403 0.7150533096118273 0.7420273013373561 0.6348056892225735 0.6293570637924744 0.4953191149128731 0.7054157913989317 0.5735089586137145 0.5385859018642488 0.6352873460230526 0.5770124533159894 0.5689032454358346 0.7182598690520684 0.5526777316949282 0.6420023206498807 0.608035653351572 0.4288688802219274 0.5637870496863878 0.4095562041604304 0.5271240569516325 0.4975151936740526 0.5247888723653249 0.5750987708701092 1:3 2:4 3:4 4:3 5:2 6:1 7:2 8:1 9:2 10:2 11:1 12:6 13:5 16:4 17:5 18:3 19:6 20:2 21:6 22:6 23:4 
0.284531895387372 0.1090849997890441 0.1167722831622641 0.1197438080024082 0.09272598897022892 0.1638260549297916 0.1333157589681956 0.08450732822156165 0.09198906061632432 0.07971309333582048 0.1177238330310634 0.09335018164720002 0.08847346827127922 0.1046547732769068 0.09455027981022082 0.09272434389855976 0.1220594405968195 0.08840627998134297 0.09915323169066156 0.1000007175701633 0.0716811544636994 0.08041334124775544 0.06893932522864871 0.08965243423006629 0.0843802184731626 0.0891992001774282 0.08905874653130302 1:4 2:6 3:6 4:4 5:2 6:1 7:2 8:2 9:2 10:3 11:2 12:7 13:8 16:4 17:7 18:6 19:6 20:6 21:7 22:8 23:5 
0 0 0.02200519366685149 0.05858497486486167 0 0.09269987430424755 0.1996494891428462 0 0 0 0 0 0 0 0 0 0 0 0 0 0 0 0 0 0 0 0 1:4 2:4 3:5 4:3 5:2 6:1 7:2 8:2 9:2 10:2 11:1 12:7 13:5 16:4 17:6 18:4 19:4 20:5 21:6 22:6 23:5 
0 0.1031387295927285 0.03794741747585932 0.03052157164849813 0.08545476610700202 0.007727052628310287 0 0.09284312963161043 0.0927419327468634 0.07818376497346229 0.1051953828122114 0.09135275234669701 0.08418611876374149 0.09885068177627156 0.088292740502983 0.08856185169548134 0.1110280741060077 0.084345770629667 0.09584982031919398 0.0930801276920382 0.06738459153414959 0.08615951593153559 0.06371132278548199 0.08157550669334474 0.08132707679874655 0.08392533997770077 0.08965208949165336 1:4 2:5 3:5 4:4 5:2 6:1 7:2 8:2 9:2 10:3 11:1 12:8 13:7 16:4 17:7 18:6 19:4 20:6 21:7 22:7 23:5 
0.5069717381483589 0.4639662770778686 0.4155991133874615 0.6633746052426617 0.4353947156532406 0.8861334560326372 0.6245534587243921 0.4334233269644227 0.42255315964574 0.3823275624491426 0.5309240430455001 0.4397047681138608 0.3743245003947942 0.478742508703873 0.4027446107150537 0.4088884877751222 0.5002455112924089 0.3988424941955037 0.4347363079644955 0.4300746350275815 0.3004352607792017 0.4511596797713167 0.2838327997718376 0.36506540394627 0.3878867436841755 0.403999343005154 0.4081877666739995 1:2 2:4 3:3 4:2 5:2 7:2 8:1 9:2 10:2 11:1 12:5 13:5 16:4 17:3 18:5 19:2 20:5 21:3 22:6 23:3 
0.1603259894715719 0 0 0 0 0 0 0 0 0 0 0 0 0 0 0 0 0 0 0 0 0 0 0 0 0 0 1:3 2:3 3:4 4:2 5:2 7:2 8:1 9:1 10:2 11:1 12:6 13:4 16:4 17:3 18:4 19:4 20:3 21:5 22:4 23:4 
0.634103844836968 0.4240298989170787 0.4294416836751468 0.4707174131461455 0.350157786070679 0.5497079784842135 0.4291080294830503 0.3850847527755629 0.3809568790231295 0.3175532086610205 0.4547231809554478 0.3669414045410209 0.3513286707619646 0.4094347733708871 0.3779360096381657 0.3613864689283996 0.4696345732215405 0.3534544163154285 0.4024573675184116 0.3964842600864165 0.2810448683924859 0.3453815374018323 0.2685942359998496 0.345140119198265 0.3244589398905828 0.3424863803666403 0.3665332875578568 1:4 2:4 3:5 4:3 5:2 6:1 7:2 8:2 9:2 10:3 11:1 12:8 13:5 16:4 17:6 18:5 19:4 20:6 21:5 22:8 23:4 
0 0 0 0 0 0.03361735402917632 0.09545138069725984 0 0.001015889916108691 0 0.007532386485618426 0 0 0 0 0.002685642515118886 0 0 0 0 0 0.008307550665969112 0 0 0.005725139186565548 0 0 1:3 2:3 3:4 4:3 5:2 7:2 8:1 9:2 10:2 11:1 12:5 13:5 16:4 17:4 18:5 19:2 20:5 21:4 22:5 23:4 
0.2827808255336425 0.6532429520055977 0.4804710862696446 0.6272291764809752 0.5499468658532252 0.6569207333693317 0.6610381068822963 0.5959523767266173 0.5993332498095733 0.4946698595995602 0.6926064265121428 0.5721252682058825 0.5417258195288022 0.6354980808559519 0.5813824782212608 0.5610902004623628 0.7195808507429635 0.550171248156145 0.6264471581454578 0.607684020005551 0.4323437228075698 0.5438883741665014 0.4115976818254354 0.5293387899746274 0.5045725995572505 0.5305840304326667 0.5682263864507836 1:4 2:6 3:6 4:4 5:2 6:1 7:2 8:2 9:2 10:3 11:2 12:8 13:8 16:4 17:7 18:7 19:6 20:6 21:7 22:8 23:5 
-0.3533461032356217 0.09866790985938806 0.162258053043572 0.1925607721673092 0.08491257135931042 0.04475452954277919 0.2121092939331261 0.0786140564696393 0.1056950049096957 0.09057254370360002 0.1054221364441376 0.08843187144849742 0.07671017542810542 0.08832103072898866 0.08318107774313192 0.08731120871146665 0.09711809798057627 0.0748972088273894 0.08493546073758412 0.08759433801302323 0.06449137116124894 0.09847525059382226 0.0626897702446913 0.07518748748190156 0.08641152459677484 0.07679084560065934 0.07883362874673215 1:3 2:4 3:4 4:1 5:2 6:2 7:3 8:2 9:1 10:4 11:4 12:5 13:3 16:3 17:5 18:4 19:4 20:5 21:7 22:7 23:3 
-0.3332260613119666 0.4048670356281065 0.2393516915665314 0.4181997674020324 0.3555667655521353 0.2698130578286728 0.1488984112398928 0.3831114850122049 0.3696788132591749 0.3231261613853345 0.4365386582113725 0.3751278089272621 0.347028055401382 0.4008232773405945 0.3648483037493164 0.3565321158041414 0.4331723751271013 0.3516696100977298 0.3873802350402755 0.3840538694178579 0.2896956976920635 0.3523515843827575 0.2780458703918476 0.3423839218915153 0.3372673951287161 0.3517037934665515 0.3596042751231908 1:3 2:4 3:4 4:1 5:2 6:2 7:4 8:2 9:2 10:3 11:4 12:6 13:2 16:3 17:5 18:4 19:4 20:6 21:6 22:8 23:3 
-0.1328514160530371 0 0.2086074713305041 0.2786052935349235 0 0.5976589069838784 0.7927382379926596 0 0 0 0 0 0 0 0 0 0 0 0 0 0 0 0 0 0 0 0 1:3 2:4 3:4 4:1 5:2 6:2 7:4 8:2 9:2 10:3 11:4 12:5 13:3 16:3 17:5 18:4 19:4 20:6 21:6 22:8 23:3 
-0.08928976059635124 0.2466143180001545 0.1838736355562719 0.2047829411564204 0.2057134906135586 0.1144440585208092 0 0.2074093308946968 0.2140394562612844 0.1873112673955122 0.2252527387341406 0.2069686840242317 0.2128805146385266 0.2295042761392687 0.2240496869494925 0.2170963737196694 0.2674184093909775 0.2096256278473213 0.2295953240053595 0.2243268386267978 0.1769877059368027 0.2298595300937895 0.170566886014736 0.2096056203934678 0.2125254565650293 0.2132069952331691 0.2212286007577885 1:3 2:3 3:4 4:1 5:2 6:2 7:4 8:2 9:1 10:4 11:3 12:5 13:3 16:3 17:5 18:2 19:6 20:5 21:6 22:8 23:2 
-1 0.84859692379024 0.671235917817581 0.8476630024835017 0.7842913717949922 1 1 0.8411551022076824 0.8255638822473767 0.7423786295315322 0.926120320206671 0.7711014097554606 0.7155901911289707 0.8528209348379585 0.7526520341504427 0.7621537507374966 0.8985039683579118 0.7454462790789613 0.8359989275840732 0.8141532417807282 0.6001008910482774 0.8331811578243059 0.5720865164861247 0.7016385896791446 0.7759832042830041 0.8560925267846336 0.7557088103785846 1:2 2:3 3:2 4:2 5:1 6:2 7:3 8:1 9:1 10:4 11:2 12:5 13:2 16:3 17:3 18:2 19:5 20:3 21:5 22:6 23:3 
-0 0 0.1101807816349507 0.009978899928151654 0 0.0882912026079032 0 0 0 0 0 0 0 0 0 0 0 0 0 0 0 0 0 0 0 0 0 1:3 2:5 3:4 4:2 5:2 6:3 7:3 8:2 9:2 10:4 11:4 12:6 13:3 16:3 17:5 18:4 19:6 20:5 21:7 22:9 23:4 
-0.6084638971430904 0.1612743409124227 0.2282083630675048 0.2458963200746857 0.1520873153227358 0.3368920012801185 0.5471247191495584 0.1836754704562029 0.1799254790298645 0.1175265621905679 0.2058404625940258 0.1674442140286714 0.1470019396780463 0.1657637040149696 0.1585189073105726 0.1502152378493462 0.1835646107394962 0.1514728450154114 0.1694345501540178 0.1571998091547541 0.1217949710808311 0.1205926169857476 0.1188934349911637 0.1455596238067741 0.09994869935507041 0.09258237628231965 0.153475731500578 1:3 2:3 3:3 4:2 5:1 6:2 7:3 8:1 9:2 10:3 11:3 12:5 13:2 16:3 17:4 18:2 19:6 20:3 21:5 22:7 23:3 
-0.9577693002535326 0.7735378150275337 0.594854284837013 0.7245570280953541 0.6802501734809587 0.7107921152231216 0.8363505280638206 0.7298417206661292 0.7281834118132833 0.6195966410049926 0.8211044149445776 0.6988016262351786 0.6674190881915174 0.7608671471647543 0.7044576098971102 0.6866917575159613 0.8353752648859769 0.6764997651411765 0.7507482556103086 0.7347248868653645 0.5581396920862171 0.6600871033099039 0.5355323231357182 0.6563685164898024 0.646287187333409 0.6622126957736464 0.6927701063521286 1:3 2:5 3:4 4:2 5:2 6:3 7:4 8:2 9:2 10:4 11:4 12:6 13:4 16:3 17:5 18:4 19:6 20:6 21:8 22:9 23:4 
-0.1099848036728346 -0.08598981581567679 0.08682502095250765 0.10732122151158 0.09539208476046322 0.1149948222262184 0.1099909158113407 0.101330852407548 0.1026379017372058 0.08527207365105931 0.120645673259307 0.0980547021309772 0.09264033692650291 0.1110950634909547 0.09855855226730487 0.09696815103026835 0.1244957308299596 0.09388682972359454 0.1068175385988673 0.1044735547398663 0.07232358609495988 0.09291293328391913 0.06998282067831214 0.09124431241931595 0.08928111628022725 0.08574270161171319 0.09674002187285628 1:2 2:3 3:2 4:4 5:3 6:4 7:4 8:3 9:7 10:8 11:1 12:2 13:2 15:3 16:3 17:5 18:4 19:5 20:11 21:10 22:2 23:2 
-0.2264612419549079 -0.1711874791387307 0.1836695145679242 0.215441609491678 0.1834523122889597 0.2348817932211182 0.2299539418449609 0.2137921089687393 0.2176992202986183 0.1768501818165392 0.2517730890911936 0.2040582165675623 0.1952453313692482 0.229578301349107 0.2105261093223246 0.2001158950290358 0.2643669373629614 0.1986247810696867 0.2262219063106973 0.2216449776723926 0.1545334678253245 0.1748478573772368 0.1481468287707246 0.192698801850276 0.1525965485867137 0.1401231221655146 0.2028562830589244 1:2 2:1 3:2 4:2 5:2 6:4 7:2 8:2 9:6 10:5 11:1 12:1 13:2 15:3 16:2 17:3 18:4 19:1 20:8 21:8 22:1 23:2 
-0.3787090912205095 -0.2879303169783601 0.2805130740152156 0.3816298402706645 0.359241600939365 0.4002068417314219 0.3638653791077277 0.3287363869634373 0.332178602871357 0.2932710076344467 0.3889756990630325 0.3358246929799061 0.2985023706714978 0.358919958069533 0.3181270073923214 0.3124083260986529 0.4006875825437102 0.3019149732910069 0.3438006263379355 0.3354890706127939 0.2399935958105266 0.3250835675184697 0.224186605347904 0.2909970469854559 0.3602178092512963 0.4470938093332789 0.3136054708235629 1:1 2:2 3:1 4:2 5:2 6:2 7:2 8:2 9:5 10:5 11:1 12:1 13:1 15:2 16:2 17:2 18:4 19:1 20:8 21:5 22:2 23:1 
-0.3744028946865266 -0.2958646960500652 0.2963732562292168 0.3644084634167638 0.3242378814082467 0.3923347050794552 0.3743011208632935 0.3491371159289781 0.3531970874515418 0.292026303659115 0.4067615951434137 0.3414797812965374 0.3150952213750973 0.3716447072004415 0.33819857350016 0.3352971930844318 0.4241130894379017 0.3191069860541582 0.3666006936876633 0.3560426575202591 0.2492031730284178 0.3319266745328861 0.2385730137849682 0.3083588294541579 0.3088849021974917 0.3500689356755274 0.329555265173816 1:2 2:2 3:2 4:2 5:4 6:2 7:3 8:3 9:6 10:6 11:1 12:2 13:1 15:2 16:4 17:3 18:3 19:4 20:8 21:9 22:1 23:2 
-0.4590133107862288 -0.3550185436495128 0.371604201915359 0.4638427467058665 0.3958370426139952 0.4932037411047807 0.4655443758591332 0.4347575719357222 0.4392301567779918 0.3587305036441312 0.5103222295499054 0.4153060857937407 0.3954939864226598 0.4690142590593971 0.4248718358210762 0.412588761279355 0.5326029203316153 0.4015202540148026 0.4582409583403905 0.4464498733520813 0.3141197457378335 0.3950769138476049 0.2986111081590244 0.3884925288928028 0.362143506653101 0.3800345535896166 0.4146861048945538 1:1 2:2 3:1 4:2 5:2 6:4 7:1 8:3 9:5 10:5 11:1 12:1 13:1 15:3 16:1 17:4 18:3 19:2 20:9 21:4 22:1 23:2 
-0.1984092531386532 -0.1473472737815711 0.1579444295819763 0.1921492823031575 0.1728541120677379 0.2083719670600761 0.1976489306674021 0.1854474973832465 0.1885289766469791 0.1538822630952454 0.2163890799081034 0.1782573781375003 0.1693563730722863 0.1972274435524147 0.1829623850189994 0.1754971228715582 0.2273729559151747 0.1711890168280012 0.1963846754684306 0.1908447008568713 0.1358605235421225 0.1655385282976568 0.1280567338759995 0.1648809932590109 0.1620414337252376 0.1667464791295917 0.1758975194714546 1:2 2:2 3:2 4:4 5:3 6:4 7:4 8:3 9:8 10:6 11:2 12:2 13:1 15:3 16:3 17:5 18:4 19:5 20:11 21:9 22:1 23:2 
-0.2360886829432114 -0.1826978590552031 0.1879613778733025 0.2299748416844669 0.2047343335561811 0.2483157917430831 0.2364245518965874 0.2200673722738993 0.2228970302990176 0.1837268549658901 0.2594043981252903 0.2132695165071003 0.2003967536957575 0.2375962290573283 0.2141057528468784 0.2084083325943635 0.2703706626424673 0.2029057085500943 0.2314441636501404 0.2259932151995658 0.1583227960964741 0.1995856162292042 0.1519641830406628 0.1962284308894491 0.1822803291198047 0.1891845242150824 0.2106525838848169 1:2 2:3 3:2 4:4 5:4 6:4 7:4 8:3 9:9 10:6 11:2 12:2 13:2 15:3 16:4 17:4 18:5 19:4 20:12 21:11 22:2 23:2 
-0.1683910229805492 -0.1320700694226014 0.1323832851022971 0.1613237674085616 0.1467847774018349 0.177708409527903 0.1685116252443579 0.1569577214949356 0.1585548144882675 0.1344965530981673 0.1820693477381802 0.1683393247302584 0.1417547057098273 0.1661933365248197 0.1513383509758385 0.1553644470282527 0.1893479368999455 0.1436111611556711 0.1632431236834455 0.1582716678364456 0.1119148985076907 0.1676956704569181 0.1061190306759828 0.137611174627924 0.1540734435145754 0.2074691272846477 0.1508638966782031 1:2 2:1 3:2 4:3 5:2 6:3 7:2 8:2 9:7 10:4 11:1 12:1 13:2 15:2 16:3 17:3 18:3 19:3 20:9 21:6 22:2 23:1 
-0.1545990100699965 -0.1249391307673316 0.1253387318208336 0.153781560362177 0.1329004672252424 0.1646938568120927 0.1560045989149961 0.1451229342877945 0.1446747173495378 0.1178605973226898 0.1699316786937011 0.1363080813546752 0.1323780378105735 0.1561006169763893 0.1413428218904887 0.1334777777898211 0.178733123669128 0.1355896836233352 0.1514327494046677 0.1481076780560521 0.104889065943178 0.1272868542522992 0.09953134925487195 0.1308902821171944 0.1030269642363052 0.1326152160131975 0.1399692426351654 1:2 2:2 3:2 4:3 5:4 6:2 7:4 8:2 9:7 10:6 11:1 12:2 13:1 15:3 16:2 17:5 18:3 19:4 20:9 21:8 22:2 23:2 
-0.1586998946464679 -0.1203077135907161 0.125667576078776 0.1544022968591495 0.1358109934572275 0.1662209931695625 0.1568574252462869 0.1462927241270372 0.147805095105518 0.123694708134458 0.172308812141741 0.1432052571462445 0.1338261891937488 0.1572602359437181 0.1447473631362636 0.1382298917039527 0.1803001999054839 0.1367589554696291 0.1550657770524454 0.1518155095377511 0.1062788491584647 0.134485263869988 0.1006728354634801 0.1320266136080092 0.1234541631666653 0.1276133737077911 0.1400514509152977 1:2 2:3 3:2 4:4 5:4 6:4 7:4 8:4 9:8 10:8 11:2 12:2 13:2 15:3 16:4 17:5 18:5 19:5 20:11 21:13 22:1 23:2 
-0.2116213988260842 -0.1651264490953468 0.1674077591173315 0.1946758757312768 0.1808670871501984 0.2176057969286393 0.2102441545617992 0.1970651378516242 0.2012815445694393 0.1651128637565319 0.2304112893421225 0.1845465042137627 0.1801161340213215 0.2093015274091104 0.1929624369890755 0.1869883805466957 0.241853847635384 0.1813657246759873 0.2088134244126781 0.2026480879618555 0.142057364845275 0.1885114529216971 0.1357628387348731 0.1757694495578678 0.2118397712231875 0.206842406540646 0.1916592965179294 1:1 2:2 3:1 4:2 5:3 6:2 7:3 8:2 9:5 10:5 11:1 12:1 13:2 15:3 16:1 17:4 18:2 19:3 20:8 21:7 23:2 
-0.6037984400084291 -0.46507899587273 0.4805589715689465 0.5868319440471863 0.5231500743299159 0.6348965313221755 0.604637404254723 0.5639940388522238 0.5709994985374569 0.4694692343473187 0.660622505575537 0.5429170395873461 0.5134773020274346 0.6042787378177058 0.5503263487296219 0.5352974914315346 0.6906994518132128 0.5203487592900528 0.5937433167029101 0.5768926278556971 0.4076127137281443 0.5121612790677806 0.3877419568090255 0.502009189035295 0.4752788292360027 0.5009594127934788 0.5372815648584663 1:2 2:3 3:3 4:4 5:4 6:4 7:4 8:4 9:9 10:9 11:2 12:2 13:2 15:3 16:4 17:5 18:5 19:5 20:13 21:13 22:2 23:2 
-0.2189692487527017 -0.1538980144330475 -0.2734058030101497 0.2482666541316304 0.2298250198090794 1 0.2839923015875719 0.2461536072604592 0.2481640727974244 0.2005959878515058 0.2933585715593622 0.2316843871280957 0.2346192503683162 0.2645591476363538 0.2686404791824099 0.2391193659486125 0.2947336382499849 0.2479121212484063 0.2766587894540911 0.2572723685942772 0.1957035104731458 0.21624099618416 0.1880156365053412 0.2306690091821375 0.2145683111711415 0.2168748680007281 0.2418057135091716 1:5 2:4 3:1 4:2 5:4 6:5 7:3 8:1 9:2 10:3 11:4 12:5 13:3 16:6 17:8 18:4 19:4 20:5 21:3 22:9 23:3 
-0.8528684032441725 -0.8602399585723496 -0.6918778394719034 1 0.6218444456048712 1 1 0.6998786735900943 0.7422399237907712 0.6513864888134432 0.792318359597697 0.6683741872486994 0.5957693596155833 0.7301972128916566 0.6325081208306211 0.6610550567457614 0.7493323926506096 0.6278199404809637 0.7064938194084255 0.6810302567915737 0.4941563216220383 0.7019971928052935 0.4715020557426788 0.5807087281447174 0.6276881931262964 0.6352025108191909 0.6253769188121524 1:4 2:4 3:1 4:2 5:3 6:5 7:3 8:2 9:1 10:3 11:3 12:4 13:4 16:5 17:7 18:5 19:4 20:4 21:4 22:7 23:3 
-0.2298471755627664 -0.1863243212894925 -0.1946594284064542 0.3974707317307171 0.1721785025397245 0.470485751940609 0.4492128219643063 0.1845202771808484 0.1714639554141165 0.1456774053510588 0.2466698067173394 0.1788001546871198 0.166010884233822 0.1959649880171721 0.1796725822966295 0.1679987238769724 0.2092229833877507 0.1636998438014201 0.1795949280479208 0.1943909747028607 0.1369925049623524 0.160953388286654 0.132553077487542 0.1649735180089904 0.1593595642453841 0.1649110852400165 0.1711630060195065 1:6 2:3 3:2 4:1 5:5 6:5 7:4 8:1 9:2 10:3 11:3 12:5 13:3 16:6 17:7 18:5 19:4 20:5 21:4 22:8 23:4 
-0 -0 -0 0.1565683613044938 0 0 0 0 0 0 0 0 0 0 0 0 0 0 0 0 0 0 0 0 0 0 0 1:6 2:4 3:2 4:2 5:4 6:6 7:4 8:2 9:1 10:4 11:4 12:5 13:3 16:6 17:9 18:5 19:5 20:4 21:6 22:8 23:4 
-0.04706594292766562 -0.04653237988074028 -0.08092942697959885 0.09641374067423361 0.06722571112558093 0.04298505533227685 0.1600298758053543 0.05839979611690057 0.0644730340551218 0.05582434641631913 0.05211647104594552 0.06418020671788077 0.06863232703651014 0.06465499988248087 0.06718059815257013 0.0662265953852494 0.08581930952362575 0.0611309973562991 0.07238910301576325 0.06673638327516517 0.05833578335091585 0.05563187880457669 0.05475022014017254 0.0684943244405692 0.06204878825959769 0.06151422783388144 0.07042541238994357 1:6 2:5 3:2 4:2 5:5 6:6 7:4 8:2 9:1 10:4 11:4 12:5 13:3 16:6 17:9 18:6 19:4 20:6 21:6 22:8 23:4 
-0.4895875272616352 -0.463239871447563 -0.4984821452934372 0.6742114304866476 0.4353076280505828 0.5437365343750852 0.5233893364974027 0.4631009323864361 0.4927258529881719 0.3984558806827966 0.5159651827594145 0.4471517797992587 0.4284686779776175 0.4828052761841587 0.4493436499847719 0.4402220385197998 0.5400546502436195 0.4299836456778438 0.4850842357152218 0.46666305826045 0.3566191902522242 0.4229632522689446 0.3416155293871762 0.4202715056612623 0.4133638614725182 0.4227116856628211 0.4432334951970509 1:6 2:4 3:2 4:1 5:5 6:5 7:4 8:1 9:2 10:3 11:4 12:5 13:2 16:6 17:8 18:4 19:6 20:3 21:5 22:8 23:4 
-0 -0 -0 0 0 0.3920827665728532 0 0 0 0 0 0 0 0 0 0 0 0 0 0 0 0 0 0 0 0 0 1:6 2:6 3:2 4:2 5:5 6:7 7:4 8:2 9:2 10:4 11:4 12:6 13:4 16:6 17:10 18:6 19:6 20:6 21:6 22:9 23:5 
-0.868772136624607 -0.688335653230736 -0.8568925556621433 0.9962232199255877 0.7483459575462333 0.9274799602570536 0.9619000234862853 0.8024245168090104 0.8147898134654661 0.6874991255817117 0.9189201555474398 0.7768150413852732 0.7345155088550617 0.8465421690378139 0.7777521011870983 0.7616991560316192 0.9265455495019521 0.7459370450401126 0.829172419932778 0.81403638509509 0.6101386525770516 0.7429567774174984 0.5870588551558523 0.7222024530829537 0.7177477780787726 0.7294163179617311 0.7633803648396452 1:6 2:6 3:2 4:2 5:5 6:7 7:4 8:2 9:2 10:4 11:4 12:6 13:4 16:6 17:10 18:6 19:6 20:6 21:6 22:9 23:5 
-0.454845670023891 -0.4686980173736359 -0.3609057092427573 -0.4061910127174461 0.3048107855121991 1 0.8462634178852345 0.3347081759110092 0.3100717289803407 0.2565415829808267 0.3941171468830674 0.2934671618243223 0.2962954312197392 0.3531924170153311 0.3244576143434642 0.2926248932265838 0.3965099521400268 0.2952281684200881 0.3447806602284091 0.3480498487245091 0.239420379410645 0.2810450396828848 0.2306715455173475 0.2950503530645577 0.2741550072289763 0.2767818960673816 0.3121682534791214 1:4 2:4 3:4 4:1 5:2 6:4 7:4 8:4 9:2 10:4 11:3 12:5 13:2 16:7 17:6 18:6 19:4 20:4 21:5 22:7 23:4 
-0 -0 -0 -0 0 0 0.07242005151891556 0 0.01779008324370063 0.004214196816705501 0 0.01808567268464028 0 0.001112835694383948 0 0.008746004715319125 0 0 0.01236667241897995 0 0 0.002981512121113625 0 0 0.004715621454408264 0 0 1:4 2:4 3:4 4:2 5:1 6:5 7:5 8:4 9:3 10:3 11:4 12:5 13:3 16:7 17:8 18:6 19:5 20:4 21:6 22:7 23:4 
-0.222457711498253 -0.1127752238191259 -0.2598760966942909 -0 0.2182236604315763 0 0.1259093290776435 0.2163971832685127 0.21026764186112 0.1932493345123714 0.2567055135662817 0.2163861383768508 0.2142143675899453 0.2481248445317682 0.2256779059629617 0.2148986310201137 0.2843562090533032 0.2173707380042451 0.2326054946549226 0.2330888095939363 0.1736809449357794 0.208424558576918 0.1657885842795965 0.2107784994264743 0.2038193126415956 0.2081032832962488 0.2247833360347692 1:4 2:5 3:4 4:2 5:2 6:5 7:6 8:4 9:4 10:4 11:4 12:5 13:3 16:7 17:10 18:8 19:4 20:5 21:6 22:7 23:5 
-0.05902774692752932 -0.007957184038331256 -0.07199330166461052 -0.4828590095572427 0.05960422672313181 0.8457426665996914 0.2288190282104724 0.09486478953168172 0.1127140684220589 0.05781588054013524 0.1060440422535238 0.08367060612577508 0.05980821427048333 0.08321871094749089 0.06981525789160124 0.06653899515081911 0.07933743765330842 0.06123886744300648 0.09238680926711138 0.07932589486308933 0.04779468547370629 0.06197812999822415 0.04538779318299433 0.05840048377619109 0.05411958089336354 0.06112000943996801 0.06166133558759067 1:4 2:5 3:3 4:2 5:2 6:5 7:6 8:4 9:4 10:4 11:4 12:6 13:3 16:7 17:10 18:7 19:5 20:4 21:6 22:8 23:5 
-0.5487706773103521 -0.5768637263963636 -0.5312152849773691 -0.8315112844967866 0.4517602425202716 1 0.6579833645069758 0.4812361898929878 0.4721487953330633 0.4018189607805205 0.5528459943465696 0.4477625164280711 0.441588708026078 0.5154759368467544 0.4717563111137285 0.4426476269696577 0.5847001036067365 0.4484143012286826 0.5004162953337497 0.4862677626701393 0.3557616054125298 0.4454519193575077 0.3399341243034909 0.4342605736843821 0.417438519670321 0.4371967697961514 0.4629403040434165 1:4 2:4 3:4 4:1 5:2 6:4 7:5 8:4 9:2 10:4 11:3 12:4 13:3 16:6 17:8 18:5 19:6 20:3 21:5 22:8 23:3 
-1 -0.7136778624247512 -0.9179805409078264 -0.625533619776638 0.8276161027851168 1 1 0.8260963919764455 0.811948858900673 0.7309018715355071 1 0.8344554596677988 0.7479683510623156 1 0.7881351489838897 0.7856489578007059 0.9780345303040007 0.7839228518559113 0.8499086555844513 0.8483636321008866 0.6179859838242996 0.8140536308224392 0.5678652734370937 0.7218059571215451 0.7745120604310509 0.8274925685184389 0.7735445313656711 1:2 2:3 3:2 4:1 5:1 6:3 7:3 8:3 9:2 10:2 11:2 12:3 13:2 16:4 17:5 18:5 19:1 20:5 21:1 22:5 23:3 
-0 -0 -0 -0 0 0.07664991606309991 0 0 0 0 0 0 0 0 0 0 0 0 0 0 0 0 0 0 0 0 0 1:4 2:6 3:4 4:2 5:2 6:5 7:7 8:5 9:4 10:4 11:4 12:6 13:4 16:7 17:11 18:8 19:6 20:6 21:6 22:8 23:5 
-0.6937803870573158 -0.4854688905914616 -0.7328445536511447 -0.2285738005425329 0.6207159929804419 1 0.5686839856063518 0.6614908651435569 0.6578998033182659 0.5573923101518475 0.7797213988881916 0.6402671407323259 0.6094672391516552 0.7113720938931518 0.6489297556073783 0.6342376725097395 0.8068168251129423 0.6154025965071095 0.6930195911078133 0.6800296197683766 0.4884710554482763 0.608038166567308 0.4680707303102851 0.5972812233544834 0.5742042813756154 0.5978816375676681 0.6370099866651894 1:4 2:6 3:4 4:2 5:2 6:5 7:7 8:5 9:4 10:4 11:4 12:6 13:4 16:7 17:11 18:8 19:6 20:6 21:6 22:8 23:5 
-0.06294939044338987 -0.1103466590319212 -0 -0.31195348837661 0 0.07026273416836243 0.3940287244974942 0 0 0 0 0 0 0 0 0 0 0 0 0 0 0 0 0 0 0 0 1:4 2:6 3:4 4:2 5:2 6:5 7:7 8:4 9:4 10:4 11:4 12:6 13:4 16:7 17:10 18:8 19:6 20:6 21:6 22:8 23:5 
-0.4101825915894872 -0.446456461166788 -0.3309679626545294 -0.6825319227860537 0.2749360327255768 1 1 0.3448804832082356 0.4242423774095414 0.3078707679239479 0.4499000534836172 0.3869752132643462 0.2812140225419071 0.3350230781185288 0.3110808528782491 0.3993606532232162 0.3652603520034385 0.3009462705333487 0.3507228894842057 0.3222649410792597 0.2159042601861094 0.3327581837964095 0.2099795652608641 0.267322358838943 0.2788646026908823 0.3200674344624558 0.28767387262856 1:3 2:4 3:3 4:1 5:2 6:4 7:4 8:3 9:3 10:2 11:3 12:3 13:2 16:6 17:6 18:5 19:3 20:4 21:4 22:6 23:3 
-0.06084724149692157 -0.04007956172176149 -0.05119928827815 -0.0574564594154346 -0.0636211571299517 0.06702644919309858 0.076312701541829 0.05910530095820051 0.05937014524007223 0.04929617864684961 0.07029218437355653 0.05901273123128272 0.05202293802889686 0.06053468639808245 0.05681042613214289 0.05579885824350912 0.06852903096043002 0.05274739665981729 0.0608918308838227 0.05824813639234149 0.04211397406096119 0.04936765395193063 0.04388663074974743 0.05118985733911011 0.04416517746700756 0.04486007122287424 0.05616028625669707 1:8 2:5 3:1 4:2 5:2 6:2 7:1 8:2 9:2 10:1 11:2 12:1 13:2 16:2 17:1 18:5 19:7 20:6 21:4 22:4 23:2 
-0.4509631340561346 -0.3786167795331741 -0.4859295035363519 -0.3791346860203492 -0.4484156093571595 0.4756377634172105 0.4532425976872194 0.430477529749927 0.4371293459279749 0.3696861618569096 0.4906715625640677 0.419287262058581 0.3985162859700212 0.4592650579726332 0.422247592071457 0.4111360857052203 0.5109120169899972 0.4041682194348986 0.4500282765898792 0.4409137028100582 0.3280894811085312 0.4051748149997708 0.3110764413804391 0.3921318498344789 0.3860786781229501 0.3970522995326864 0.4141679159772773 1:8 2:4 3:1 4:2 5:2 6:2 7:2 8:1 9:2 10:2 11:2 12:1 13:2 16:2 17:1 18:5 19:7 20:7 21:4 22:4 23:1 
-0.4243504497104241 -0.3508926301488293 -0.3978945949683074 -0.3123414867509352 -0.3762511683513509 0.409398197709354 0.3949077215128172 0.3564366523318905 0.3632361058481728 0.3030724081213879 0.4068188669186956 0.344114090179461 0.3301957246542221 0.3757153438391312 0.3491365358217555 0.341599389007485 0.4222840558575545 0.3321022736764913 0.3724470936992808 0.3643115657694286 0.2696688638994479 0.3300539202760314 0.2585594207635689 0.3227128649572302 0.3208272024886162 0.3307818416421237 0.341072931498939 1:6 2:5 3:1 4:1 5:1 6:1 7:2 8:1 9:1 10:2 11:1 12:1 13:2 16:2 17:1 18:4 19:6 20:5 21:3 22:2 23:2 
-0.3520048530950368 -0.2284259720809471 -0.3129499429633266 -0.2521478490324963 -0.3178777357628408 0.34065572875173 0.3031096517122682 0.2898594748870466 0.2919777298541895 0.2250373017907414 0.3384748717815055 0.2811204828189841 0.2667617973269817 0.3101669561073523 0.2827739563171929 0.2765960807166678 0.3429581211046061 0.2708756440184769 0.3016573210565461 0.2960162095120861 0.2170878577581052 0.2694125394880408 0.2094636675145848 0.2617329638111488 0.220672011280848 0.2077212742581533 0.2785666239811841 1:4 2:5 4:2 5:1 6:1 7:1 8:1 9:1 10:1 11:1 12:1 13:2 16:2 18:5 19:4 20:5 21:1 22:3 23:1 
-0.7287101865811495 -0.5872753983039121 -0.7409122297148555 -0.5803147727746368 -0.7266480529895509 0.7646994596902023 0.7285928663993736 0.6639139166708497 0.6774184643212085 0.6188047001102408 0.7719600116134525 0.65330162540142 0.614583686200278 0.7135148916407769 0.6506828205728376 0.6358187435680466 0.7864697600426153 0.6201988221075269 0.6940998800635279 0.6778723339946003 0.5104735567838336 0.6255422629199672 0.4813127979011852 0.6010393924592475 0.6913182169676427 0.7711480037604548 0.637734304116452 1:4 2:4 4:2 6:2 7:1 8:1 9:1 10:1 11:1 12:1 13:1 16:2 18:5 19:3 20:4 21:2 22:3 
-0.8468113862826106 -0.6775313463350671 -0.8663772077383766 -0.6933320106822197 -0.8248533200874604 0.8805137609085655 0.8407614076817447 0.7937888670073113 0.8064935399787259 0.6793890947350559 0.9086192514000663 0.7703932854215968 0.73291766547656 0.8436141083595906 0.778225074061231 0.7589145586455649 0.9417621210968027 0.7421769059258689 0.8295171050401567 0.8120903950494459 0.6015293871179004 0.7327959903803624 0.5760166207928542 0.7203683981501928 0.7098514299339337 0.725320523776115 0.7625230273109159 1:8 2:8 3:1 4:2 5:2 6:2 7:2 8:2 9:2 10:2 11:2 12:2 13:2 16:2 17:2 18:5 19:9 20:8 21:5 22:4 23:2 
-0.3715505274752964 -0.2295685863637125 -0.3845662537502713 -1 -0 -0.3220829340469031 0.4178227321446678 0.3213597742515424 0.3210788453319418 0.2872815527127439 0.4441988575280273 0.3307918997451109 0.3148210579298955 0.3600863807417452 0.3514726162041291 0.316662095030164 0.4249647686135234 0.3015497044730212 0.3522222664639989 0.3540492018945852 0.2471576136499903 0.3073770577464389 0.2363349584810875 0.3076936465224025 0.2910655140840426 0.3089900696972714 0.3296954227914799 1:4 2:4 3:3 4:3 5:4 6:4 7:4 8:3 9:3 10:3 11:3 12:5 13:3 16:7 17:8 18:5 19:3 20:6 21:3 22:10 23:4 
-0.3965406953840597 -0.2208309970783132 -0.1217322639650368 -0.02409068714450642 -0.4146147709285066 -0.1366044912217509 1 0.1219289058855883 0.09448699613232257 0.2005498484678325 0.4809400409103942 0.2340371541094808 0.07586623395116898 0.3004154996566464 0.08240242256589744 0 0.141269323024083 0.1305292388342605 0.08080957336100569 0.1285759248519141 0.05519037501137191 0.1052675446714337 0.06799480667562595 0.09053355298759623 0.08538723304581536 0.1929449067647319 0.1042558473416864 1:2 2:3 3:2 4:2 5:2 6:3 7:3 8:2 9:2 10:2 11:2 12:3 13:2 16:4 17:4 18:5 19:1 20:3 21:3 22:6 23:4 
-0.4980129223621024 -0.420460654674989 -0.2753795293582539 -0.382064670864102 -0 -0.2192046312249263 0.7110158865614125 0.3838105553123916 0.2431868318278173 0.1919971894537027 0.515033810056069 0.2350419716843019 0.2252421915275125 0.3640405034106569 0.2465689557594565 0.2227638092517872 0.3089911231655402 0.2662295537211638 0.293281884829537 0.3195374524872383 0.1735977668633386 0.2253391507161351 0.1700591803431861 0.2248211087007981 0.1992806852354879 0.2051422969164938 0.2409394919060821 1:3 2:4 3:3 4:3 5:3 6:4 7:3 8:3 9:3 10:3 11:2 12:5 13:3 16:5 17:8 18:3 19:4 20:4 21:4 22:8 23:6 
-0.3509846942759035 -0.6656789111795035 -0.260048691926934 -0.6607394027065364 -0.6950902267670593 -0.2123673532785831 1 0.2524243962912004 0.3008409029279569 0.2307307111259453 0.371394914879899 0.270970376676565 0.2216137897158252 0.2361473912352003 0.2501362379240698 0.3022393958569318 0.3007579655149842 0.2774593604743043 0.2777961755941338 0.234420976090708 0.1693667967289741 0.2975230639730047 0.1632774790229636 0.2127705161040562 0.2240147967618624 0.2254017728544922 0.2326627301522691 1:2 2:4 3:2 4:2 5:2 6:3 7:3 8:2 9:2 10:2 11:4 12:3 13:3 16:5 17:5 18:4 19:2 20:4 21:3 22:8 23:3 
-0 -0 -0 -0 -0.7785463855039495 -0 0.2079734691626215 0 0 0 0 0 0 0 0 0 0 0 0 0 0 0 0 0 0 0 0 1:4 2:4 3:4 4:3 5:3 6:5 7:4 8:4 9:3 10:3 11:4 12:5 13:3 16:7 17:9 18:5 19:4 20:5 21:4 22:10 23:5 
-0.2809127437567148 -0.1746404374392638 -0.2538501784799319 -0.1946702973306949 -0.06881471668294836 -0.2132486975213333 0.599812525701857 0.2574295132825233 0.2886577279333129 0.1908869164617002 0.312637401780876 0.2428043838129489 0.2072297995874368 0.2638149780250873 0.2194819898136141 0.2234210049740402 0.2817051716200661 0.208152822089635 0.2654554065930566 0.2448109303061857 0.1626578244673295 0.2108132795174679 0.156113083426091 0.2031531083271023 0.1925507511555644 0.2032270360228974 0.2174509307075377 1:4 2:5 3:4 4:4 5:4 6:5 7:4 8:4 9:4 10:2 11:4 12:6 13:4 16:7 17:10 18:5 19:5 20:5 21:6 22:10 23:6 
-0.8016969900811085 -0.4525286958658939 -0.6038252693776131 -0.4038634153058028 -0.9439868101839014 -0.5418787970620879 1 0.6032436397606518 0.6749199736086419 0.4762941603571114 0.9362483375452052 0.555712695217494 0.5056954310565696 0.7486763301691166 0.529168786739272 0.6910409411828883 0.6344227550144552 0.5432194676682863 0.6342537038690771 0.706396531378654 0.4206956649562635 0.5569409584680399 0.3572831761785857 0.4610743876792858 0.5543317194567533 0.6348732007661435 0.4939552821020682 1:2 2:3 3:2 4:2 5:2 6:3 7:3 8:2 9:2 10:2 11:2 12:3 13:2 16:5 17:4 18:4 19:2 20:4 21:2 22:4 23:5 
-0.3842901205841144 -0.1287065614058217 -0.4317984354879023 -0.2421499364990666 -0.5621032912082047 -0.3550300115757738 0.3136069772546142 0.3488870191833017 0.3016210049710542 0.2879379981992664 0.3268885745854272 0.345682887894295 0.3539392327577458 0.4692678947457203 0.3805950611851461 0.3405514992521617 0.4764178522276658 0.369528476887505 0.3810854008305025 0.3701930224000597 0.276613865353387 0.3502509397065928 0.2681521968246934 0.3502129914999507 0.3065064300821322 0.289482656730176 0.3731406214401522 1:2 2:3 3:2 4:2 5:2 6:4 7:3 8:2 9:2 10:2 11:2 12:4 13:2 16:5 17:4 18:5 19:1 20:5 21:1 22:8 23:3 
-0.1267686660104896 -0.151760469914495 -0.09540328027731194 -0 -0.9833087573614123 -0.07578181465488727 0.4746328176676888 0.1382412836707622 0.166881847988544 0.06651810102186816 0.1679864750728545 0.09404020913454436 0.07751171871683592 0.09903983608205061 0.1902148969769512 0.1297027849358253 0.1061692328844267 0.1248142333196646 0.1661472770133912 0.1391870745600726 0.06030993615990497 0.07953518439251954 0.059298371218971 0.07749001455392056 0.07596562500404379 0.08402887465313626 0.08215343936445389 1:3 2:4 3:3 4:3 5:3 6:4 7:4 8:4 9:2 10:4 11:2 12:5 13:3 16:7 17:7 18:4 19:4 20:4 21:4 22:9 23:5 
-0.1889457757148796 -0.2091443136460825 -0.2969532626252261 -0.7688328086569112 -0.4893207759801252 -0.2542017463955507 0.2144508304835016 0.1959222717205587 0.2519768228846669 0.2299522337439984 0.1816089139280723 0.2487904794245949 0.2444601190293149 0.2313486464756857 0.2296047000748111 0.2418877198370484 0.3279379113473225 0.2122272004174343 0.2477571556979858 0.2241492810772182 0.1929514246121778 0.2413028964858009 0.181968254160008 0.2375546430969402 0.2266432134164096 0.2405711049994621 0.2532671899656929 1:3 2:5 3:3 4:2 5:4 6:4 7:4 8:4 9:2 10:3 11:3 12:5 13:3 16:6 17:9 18:3 19:5 20:4 21:4 22:9 23:5 
-0 -0 -0 -0 -0.07664991606309991 -0 0.03802916144770124 0 0 0 0 0 0 0 0 0 0 0 0 0 0 0 0 0 0 0 0 1:4 2:6 3:4 4:4 5:4 6:6 7:6 8:4 9:4 10:4 11:4 12:6 13:4 16:7 17:11 18:6 19:6 20:6 21:6 22:11 23:7 
-0.691552947942856 -0.5093262444192077 -0.7298780846780453 -0.7003588499702577 -0.9802196661519466 -0.6075308826883641 0.9798475969674156 0.6317738980466526 0.6225953839027605 0.5383220251636175 0.7695320519988196 0.6198861694655757 0.5980832540198605 0.6935602313033593 0.6373127737223602 0.6136572543652425 0.808518448494974 0.5987302197220707 0.6750262129937623 0.6733221631139734 0.4678645338678628 0.5888540520699498 0.4490538713881813 0.5861549661301376 0.5507179123066478 0.5825447242450709 0.6266048822205942 1:4 2:6 3:4 4:4 5:4 6:6 7:6 8:4 9:4 10:4 11:4 12:6 13:4 16:7 17:11 18:6 19:6 20:6 21:6 22:11 23:7 
-0 -0 -0 -0 -0.08725709048799038 -0 -0.4638707557139838 0 0 0 0 0 0 0 0 0 0 0 0 0 0 0 0 0 0 0 0 1:3 2:3 3:3 4:2 5:3 6:3 7:4 8:3 9:2 10:1 11:3 12:3 13:3 16:4 17:5 18:4 19:3 20:4 21:5 22:6 23:5 
-0.1261758676038176 -0 -0.1697413210443995 -0.2221760271896587 -0.2067810652586632 -0.1436701153652998 -0.08873430064836584 0.1450892552527058 0.157798550739732 0.1330591325896914 0.1432138436463906 0.1501803803406823 0.1425607706869057 0.1613710348412411 0.1500772198328023 0.1497815848493146 0.1899379000570672 0.1434379475181895 0.1642404374965 0.1539081201283008 0.1152153860326492 0.144466898229424 0.1090275087241509 0.1394657075810099 0.1359258849793217 0.140989118980526 0.1490818136429981 1:4 2:5 3:4 4:2 5:4 6:4 7:7 8:3 9:2 10:1 11:4 12:5 13:3 16:5 17:7 18:6 19:3 20:6 21:6 22:9 23:6 
-0.5022378836875627 -0.5047042169276537 -0.4932659130004078 -0.9424182426476901 -1 -0.4502052033223026 -1 0.4731382943403306 0.4960315974652467 0.5273444748401661 0.4648174199524179 0.5119353448893607 0.4155365214631857 0.5546727776000959 0.4526856280831734 0.494249452072262 0.5609848076560187 0.4892026914444039 0.4926359039790436 0.3899522694235176 0.3348596979472585 0.581731647544271 0.3135555456860044 0.4017215258135465 0.4586938907431487 0.4802386266487266 0.4447125924053555 1:3 2:3 3:2 4:2 5:2 6:4 7:3 8:3 9:1 10:1 11:3 12:3 13:3 16:4 17:5 18:4 19:2 20:4 21:4 22:7 23:3 
-0.1908086870997673 -0.4465771562908417 -0.1403665786945925 -0.2147578100397782 -0.246943678548047 -0.1163557150540158 -0.2724713557329305 0.1084920705912982 0.1042156114924577 0.09548819193667091 0.161227071710181 0.1106620982600701 0.1134417452153281 0.1288845015022855 0.1251373280036262 0.1127379061418077 0.1529277407654023 0.1117134844904345 0.1238215978738366 0.1221589297616749 0.09024977308807952 0.1070384641111664 0.0866033485480622 0.1120682495830536 0.1036401150299187 0.1023932115434119 0.1187251656150998 1:4 2:4 3:4 4:2 5:4 6:3 7:7 8:3 9:2 10:2 11:3 12:5 13:3 16:5 17:6 18:5 19:4 20:4 21:7 22:9 23:6 
-0.3499293489770303 -0 -0.1331099242759016 -0 -0.4896190259716551 -0.1128816170403713 -1 0.06320648017013024 0.02705984079474098 0.02139239064487932 0.3785221578378613 0.136950939249121 0.08530885757527941 0.1904108238029134 0.09620708907758793 0.08710349384781227 0.1055464899817841 0.04559037149711575 0.06005069588600037 0.2159175528821669 0.06809677271737816 0 0.06626222180437313 0.08631150343709038 0.06228869945587449 0.030582644659896 0.08142781354180059 1:3 2:3 3:3 4:2 5:2 6:4 7:3 8:3 9:1 10:2 11:3 12:3 13:3 16:4 17:4 18:5 19:2 20:4 21:5 22:6 23:5 
-0.5149329503406437 -0.4370603032989601 -0.4922569153317933 -0.5845121808561969 -0.6308128353739937 -0.4107419878066639 -1 0.4482016623023384 0.4335686696781992 0.3592033487860034 0.582092124881031 0.4253098234732416 0.4071774738397774 0.4795751515153758 0.4389043658760466 0.4167959014692354 0.5421625155114196 0.4098613487240131 0.4718269855859236 0.4676207222619227 0.3249514250656361 0.3927182752197799 0.3106184131061611 0.3993838369711951 0.3759136779897556 0.3913471233785421 0.4247556294637966 1:4 2:5 3:4 4:3 5:3 6:5 7:5 8:4 9:2 10:1 11:4 12:5 13:3 16:5 17:7 18:6 19:3 20:6 21:5 22:11 23:5 
-0.03753291164002297 -0 -0.06606041924501448 -0 -0.1717195891630878 -0.05489807331133693 -0.1949399816180256 0.05716201501565579 0.05989565694251434 0.05043841623853829 0.07301288457613994 0.06304956108033828 0.05253435088076135 0.06728129957016178 0.05349797213678102 0.05408215343086423 0.06876380278891045 0.05272795775559953 0.06034881907342858 0.06264349401538599 0.04085507452817105 0.05460639043454375 0.03988018428088302 0.05106943393825152 0.05076672535455402 0.0603499349319758 0.05678318908066837 1:4 2:6 3:4 4:4 5:4 6:4 7:7 8:5 9:2 10:2 11:4 12:6 13:3 16:5 17:8 18:6 19:6 20:5 21:7 22:10 23:8 
-0 -0 -0 -0 -0 -0 -0.2292133011894632 0 0 0 0 0 0 0 0 0 0 0 0 0 0 0 0 0 0 0 0 1:4 2:6 3:4 4:4 5:4 6:5 7:7 8:5 9:2 10:2 11:4 12:6 13:4 16:5 17:8 18:6 19:6 20:6 21:7 22:11 23:8 
-0 -0.2359158990940304 -0.04147215577793759 -0.1492547233143309 -0 -0.02480015030229929 -0 0.06895642218014814 0.100120108401352 0.06076123811846332 0 0.08384687764830061 0.04256391540893854 0 0.03356304249714152 0.02038847574204378 0.06287208275266702 0 0.04981133756609833 0 0.03022797131762857 0.0730362603582066 0.03422845620829586 0.04376386966194829 0.0315966881748304 0.07540887783477836 0.0514319580486591 1:3 2:3 3:3 4:2 5:2 6:4 7:4 8:3 9:1 10:2 11:3 12:3 13:3 16:4 17:4 18:5 19:3 20:3 21:6 22:6 23:5 
-0 -0.1110401726499822 -0 -0 -0.1407951621400312 -0 -0.1583223522847368 0 0 0 0 0 0 0 0 0 0 0 0 0 0 0 0 0 0 0 0 1:4 2:5 3:4 4:3 5:3 6:4 7:7 8:3 9:2 10:2 11:4 12:5 13:4 16:5 17:7 18:6 19:4 20:6 21:6 22:10 23:6 
-0.6739491628257143 -0.4343237685275376 -0.6637232078073729 -0.5217866669400419 -0.5146496290358862 -0.560836213880992 -0.9288058567551902 0.6065723834931519 0.5937908073187748 0.5034741142040436 0.7410038319254316 0.5796170994927052 0.5501693847358776 0.652678699823191 0.5897489847438644 0.5723553077994535 0.7354312558809694 0.5568922343617678 0.6334042702227495 0.6214232586583821 0.4410962014271249 0.549525724817256 0.4197833772049193 0.5398990894100678 0.5184402319812426 0.5361241594117533 0.5741100763451917 1:4 2:6 3:4 4:4 5:4 6:5 7:7 8:5 9:2 10:2 11:4 12:6 13:4 16:5 17:8 18:6 19:6 20:6 21:7 22:11 23:8 
-0.6168075282126277 -0.3675996735900523 -0.5505419562869476 -0.4834114515648302 -0.7582494148561851 -0.4628095194113056 -0.6208340934487842 0.5399982528244769 0.5019977506246097 0.4137094828922373 0.6180091740895564 0.4843986623082494 0.4572859958193067 0.5407219957539032 0.4941310223033458 0.4793170579376714 0.6088945443286753 0.4677307162433624 0.5346972113823765 0.5281738085389915 0.3661756857359929 0.4564007689132633 0.3488392279145594 0.4482435168375771 0.4293908440053743 0.4355768816165531 0.4766165529733514 1:4 2:4 3:4 4:2 5:4 6:3 7:5 8:5 9:1 10:2 11:3 12:5 13:3 16:5 17:6 18:5 19:5 20:3 21:7 22:7 23:7 
-0.7750465420157736 -1 -0.5234460328082412 -0.2602072567883935 -0.647280410467548 -0.4597283510406649 -1 0.5892294507847129 0.6141123884817936 0.4198467682856223 1 0.4567286070910778 0.4338870250708681 0.6553469140132923 0.4771894834685299 0.4969353785899695 0.5814452766829542 0.550342077474456 0.5972943437739449 0.6253245547016222 0.3518393664995433 0.4679385869855163 0.3272454093674078 0.4214223393177539 0.4433729469212149 0.5622703168757992 0.4524112625623971 1:2 2:3 3:3 4:2 5:2 6:3 7:4 8:2 9:1 10:2 11:3 12:3 13:2 16:4 17:4 18:3 19:3 20:3 21:4 22:6 23:5 
-0 -0 -0 -0 -0 -0 -0 -0 0 0 0 0 0 0.03344938485994944 0 0 0 0 0 0.04320215113044426 0 0 0 0 0 0 0 4:5 5:7 6:4 7:3 8:6 9:5 10:4 11:4 12:7 13:6 16:5 17:7 18:6 19:5 20:6 21:5 22:8 23:9 
-0.395851448576405 -0.315584806726392 -0.3918907054991913 -0.3532971933582589 -0.4000650969702066 -0.333097519665268 -0.5350937400361725 -0.4439949465582946 0.3928173956630718 0.29661379174856 0.575984026599099 0.6900320417054782 0.3257562039578474 0.5714756409437238 0.3748803292603525 0.3374274460065365 0.4541242139920367 0.411605161542351 0.5580867776306548 0.276803911504133 0.2617382387457894 0.4334884511772996 0.2536197729025569 0.3336832137732556 0.320895742002811 0.3634327145327286 0.3649141122402994 4:5 5:5 6:3 7:4 8:5 9:5 10:3 11:4 12:6 13:5 16:5 17:7 18:4 19:5 20:5 21:4 22:9 23:6 
-0.006984601053544308 -0.006009369791335231 -0.007589344460257776 -0 -0.001695496923465274 -0.007420680982012556 -0 -0.002861907767952501 0 0.009800213666546273 0.03083183026662465 0 0.008207427717707631 0 0.002677351513887413 0.006792172864534297 0 0.002388982312402536 0 0.3678139887221505 0.008271446625714989 0 0.005190977958232325 0 0.003572374918611414 0 0.0008111952693261553 4:5 5:6 6:3 7:4 8:6 9:4 10:4 11:4 12:7 13:5 16:5 17:7 18:5 19:5 20:5 21:4 22:10 23:7 
-0.06529127844237431 -0.05422217268970828 -0.0696684869705782 -0.05107912471451741 -0.06268037694633734 -0.0594565881213873 -0.05331692059174195 -0.05521835698181744 0.06748282712083541 0.06104789974121784 0 0.2730233747646416 0.05843263012160561 0 0.05826982377842402 0.0628600621896169 0.07250989098284061 0.05653546134675136 0.08212910724291105 0 0.04757158860963096 0.07006896726424539 0.04348477018556757 0.05945369021927061 0.05724336811739721 0.06458899103616568 0.06007539512866365 4:5 5:7 6:4 7:3 8:7 9:6 10:4 11:5 12:7 13:5 16:5 17:8 18:5 19:6 20:6 21:6 22:8 23:9 
-0.5574898547971251 -0.4271267726625004 -0.566063358473876 -0.4473820524599682 -0.538969825664792 -0.4821966341058874 -0.6014466919176291 -0.5789729881611283 0.5312133138822389 0.4243897164952981 0.7302869510926008 0.5876210647964637 0.4738199340710045 0.8590444971104256 0.5042758713017504 0.4850152029024809 0.6343726006584263 0.472785983224518 0.6312053042631813 0.7900412425174775 0.3830516585899994 0.492646012542848 0.3674440212619339 0.4626054085129477 0.4516181484856516 0.4622028297804499 0.4931643018942724 4:5 5:5 6:4 7:3 8:6 9:4 10:4 11:3 12:8 13:5 16:5 17:7 18:5 19:5 20:4 21:6 22:6 23:9 
-0 -0 -0 -0 -0 -0 -0 -0 0 0 0.2461277006506101 0 0 0.1706163592475292 0 0 0 0 0 0.1917712001930053 0 0 0 0 0 0 0 4:5 5:5 6:4 7:3 8:6 9:5 10:3 11:4 12:7 13:5 16:5 17:7 18:4 19:5 20:6 21:3 22:9 23:8 
-0.1485456982783532 -0.1069091495804511 -0.155152758604004 -0.1104321658026201 -0.1381708676581235 -0.1324441392723252 -0.1582540776259885 -0.1275625568039299 0.1277930719450736 0.1015998827991449 0 0 0.1296076064090439 0 0.1406091071446 0.1331872929804861 0.1722721469543812 0.1463277154510125 0.1081404131201675 0 0.1059860413664091 0.08633739351038412 0.1016306957450615 0.1417810328316114 0.1187652386246688 0.109182090084615 0.1270637939866405 4:5 5:5 6:4 7:3 8:6 9:5 10:3 11:3 12:7 13:5 16:5 17:7 18:4 19:5 20:6 21:3 22:8 23:8 
-0 -0 -0 -0 -0 -0 -0 -0 0 0 0 0 0 0.08170897301614104 0 0 0 0 0 0 0 0 0 0 0 0 0 4:5 5:5 6:3 7:3 8:5 9:4 10:3 11:3 12:7 13:5 16:5 17:6 18:4 19:5 20:5 21:4 22:7 23:7 
-0.2253250507537276 -0.1756190474829613 -0.2337130359673126 -0.1791689862069217 -0.2228737433641247 -0.199878453221544 -0.2241556924710371 -0.2478481636170334 0.2147556616185054 0.188848092964322 0.4252491110785574 0.3393405913689512 0.1960976543337903 0.7247772133883668 0.2026643107457192 0.2037126228348944 0.2551652535712644 0.1913747905949175 0.2322096958801114 1 0.159489480469141 0.1900345035849342 0.1519744420649116 0.1858572080568434 0.187664434409065 0.1910833238069673 0.2019262924359322 4:5 5:6 6:4 7:4 8:6 9:5 10:2 11:5 12:7 13:5 16:5 17:7 18:6 19:4 20:6 21:4 22:9 23:8 
-1 -0.8448415640944981 -0.970138647724894 -0.8026386341338712 -0.9780611960590373 -0.8269233761431646 -1 -1 1 0.9789656520652553 1 1 0.8105856885184405 1 0.8839702720560271 0.9403556263409376 1 1 1 1 0.6677600116812426 1 0.627506056943129 0.8049487385439387 0.8680295005866062 1 0.9061921325592205 4:4 5:4 6:3 7:2 8:4 9:3 10:2 11:3 12:5 13:3 16:5 17:4 18:3 19:5 20:2 21:4 22:5 23:5 
-0.6369346484129385 -0.4934942826787093 -0.6484851247750718 -0.5104796466675916 -0.6171574753463426 -0.5521643500936365 -0.6827541347626034 -0.6435873670647925 0.5961715503153546 0.4917154865332246 0.7426399118998738 0.4875092865587529 0.5415208815206657 0.7257275156226644 0.5798554081976147 0.5613103012631736 0.7205317828546287 0.5547708166206056 0.624076708435815 0.5068422776565574 0.4391602899602197 0.5471447734796031 0.4217778085352437 0.5312392404729847 0.5205480972899593 0.5367560509718186 0.5665142739794706 4:5 5:7 6:4 7:4 8:7 9:6 10:4 11:5 12:8 13:6 16:5 17:8 18:6 19:6 20:6 21:6 22:10 23:9 
-0.4224887931362283 -0.324920184574343 -0.430703486778042 -0.3425473773380486 -0.4326091543917304 -0.364082298776087 -0.4550565134991444 -0.4412372100903864 -0.3972779619304172 0.3496212762646724 0.4726241150843732 0.3866639113082347 0.3552659054817012 0.4303096790439678 0.3121423521233904 0.4127495038436918 0.4822785472965641 0.3358156542561014 0.5599744188263476 0.4144439613187786 0.2823520445956437 0.3612539939942784 0.2757474679612937 0.3507647966340935 0.3382417794525334 0.3520172923468034 0.3725299398292973 1:2 2:2 3:2 4:4 5:6 6:4 7:4 8:4 9:2 10:4 11:5 12:6 13:4 16:13 17:9 18:4 19:4 20:2 21:6 22:6 23:5 
-0.6078523458925798 -0.4622482961398324 -0.6194890046705994 -0.4846048577391652 -0.5908130597795044 -0.5212801583292891 -0.667165622215094 -0.6213228616192517 -0.5868411680833479 0.5037166744683147 0.6926235503392823 0.5550540790994016 0.5171908195958239 0.6306528870905553 0.8133170657608103 1 0.7044969544275537 0.5887602201220419 1 0.5940938310738649 0.4143282303050848 0.5281861638402509 0.4008833320997073 0.5016681823178105 0.4977140687054903 0.4990770331407169 0.5346065292401959 1:2 2:2 3:1 4:5 5:5 6:4 7:3 8:3 9:3 10:3 11:4 12:5 13:5 16:13 17:8 18:2 19:4 20:3 21:5 22:6 23:4 
-1 -0.8570084020836486 -1 -0.8828123996358416 -1 -0.8796299287318037 -1 -1 -1 1 1 1 0.8951574831472169 1 0.974005548319667 1 1 1 1 1 0.7817192160947326 1 0.6760742029750232 0.8448634775914761 1 1 0.9118130947042871 1:1 2:1 3:1 4:3 5:3 6:4 7:2 8:2 9:2 10:2 11:4 12:3 13:3 16:7 17:6 18:2 19:3 20:1 21:5 22:3 23:4 
-0 -0 -0 -0 -0 -0 -0 -0 -0 0 0 0 0 0 0 0 0 0 0.4309684829932525 0 0 0 0 0 0 0 0 1:2 2:2 3:2 4:5 5:7 6:6 7:3 8:4 9:4 10:4 11:6 12:7 13:5 16:13 17:12 18:4 19:4 20:4 21:6 22:8 23:6 
-0.1679697667395585 -0.1320921813046152 -0.1711586668286709 -0.1715287261836358 -0.175158455209711 -0.1453065606623117 -0.2420021081519397 -0.1732186237489645 -0.1585650452559093 0.1300195462717865 0.2034159002099877 0.1469276284350351 0.1403261926812035 0.1797668727496279 0.4342290167812408 0.1020187469302628 0.1865444216336364 0.2251518724720948 0.3181688633992366 0.175477852265525 0.1136395720959976 0.1416641917141912 0.1069052844316308 0.1399886120269495 0.1330658471351901 0.142887105143155 0.1489256258083692 1:2 2:2 3:2 4:4 5:6 6:5 7:4 8:3 9:3 10:4 11:5 12:6 13:5 16:13 17:10 18:3 19:4 20:4 21:4 22:8 23:5 
-0.7743692393535867 -0.5955386630671294 -0.7911618380749969 -0.6077118376451025 -0.7504145467721477 -0.6697629797361067 -0.8306189959011129 -0.7881171365635544 -0.7215312639854514 0.626866422245045 0.8634233332654274 0.6967849972901633 0.6556128475807377 0.7845136315912454 0.7499354040871523 0.7040610727539884 0.8857201712240822 0.6785967730455351 0.7670848307433641 0.7507049026036856 0.5257908953297126 0.6638040173586873 0.506676727857756 0.6432555204780283 0.624495357514436 0.6455972808041987 0.6830162610548443 1:2 2:2 3:2 4:5 5:7 6:6 7:4 8:4 9:4 10:4 11:6 12:7 13:5 16:13 17:13 18:4 19:4 20:4 21:6 22:8 23:6 
-0.06432496791047375 -0.05127832035111078 -0.06717164978062171 -0.04465145396927811 -0.06808814131567047 -0.05556340493474571 -0.0714030977417278 -0.06469514991726404 -0.06601838128995394 0.04941484824073826 0.07397204899748293 0.07306964973107703 0.05571698414927522 0.07825251696694412 0.0056685365231538 0.2921093226834404 0.07423394792699044 0.06650817599090372 0.3098953868053695 0.07001073066011276 0.04302435043882947 0.05472289652855863 0.0431296746784124 0.0551463461806097 0.05253796762985685 0.05651821181501844 0.05953596980078603 1:2 2:2 3:2 4:5 5:6 6:6 7:4 8:4 9:4 10:4 11:6 12:5 13:5 16:13 17:11 18:4 19:4 20:4 21:6 22:7 23:6 
-0.2520618526630228 -0.2098045415302274 -0.2729835803162632 -0.2216121596790802 -0.2796868617620963 -0.2389944060099446 -0.2925557224571317 -0.278368243275501 -0.1916800080880013 -0.2288231468555129 0.2793347437408905 0.1571335073224042 0.2317818712939212 0.2681878311280537 0.2500364569184193 0.2278657555508046 0.3030476025625703 0.2397120922746439 0.2820371073898135 0.2608902867405286 0.1888807590248804 0 0.1901867880342378 0.2305483102411844 0.1677220837112316 0.1768202957719611 0.08423273513120577 4:4 5:6 6:5 7:2 8:2 9:2 10:2 11:5 12:6 13:3 16:6 17:8 18:6 19:3 20:4 21:6 22:4 
-0 -0 -0 -0 -0 -0 -0 -0 -0.02646399438200468 -0 0 0.1220161873992426 0 0 0 0 0 0 0 0 0 0 0 0 0 0 0 4:4 5:6 6:5 7:2 8:2 9:2 10:1 11:5 12:6 13:3 16:6 17:7 18:6 19:4 20:3 21:6 22:4 
-0.3142809603579609 -0.2514216320613917 -0.3519607425434853 -0.2674186976250079 -0.3255833234264073 -0.281828314399843 -0.3551204337656257 -0.3536760238799888 -0.3140656545442946 -0.4011010611810973 0.3777815294182131 0.5954743369173046 0.2842244294672408 0.3790463688374787 0.3000889947344712 0.4195695476841915 0.3801116781830293 0.3011569555128273 0.3406130081390358 0.3279019592071123 0.2500369252777553 0.8658740315882268 0.2229875756161297 0.2772991251735891 0.8952132299870687 0.6200324381291913 0.3395224501753121 4:4 5:3 6:4 7:1 8:1 9:2 10:1 11:4 12:3 13:3 16:5 17:4 18:4 19:2 20:3 21:5 22:3 
-0.1421663231622322 -0.1496933578576992 -0.1558626982424102 -0.1804207830785483 -0.1687136911055856 -0.1282258186122292 -0.1652003081959844 -0.1840430877521759 -0.2425845319080006 -0.3639063032645902 0.1543740312263826 0.1497007067884762 0.1448083183760368 0.1538246255957778 0.1469374444736808 0.1777023452596498 0.1938844914284409 0.1576359350426617 0.2563563593699165 0.1549692785817744 0.122407867141904 0.3758595605705351 0.1107614535979827 0.1378370998428261 0.1807519660578667 0.1123972142772323 0.1475744457949252 4:3 5:4 6:5 7:1 8:2 9:1 10:2 11:4 12:4 13:3 16:5 17:6 18:4 19:4 20:2 21:5 22:3 
-0.8563070647806188 -0.6678635520093939 -0.776398352167771 -0.6349469395638396 -0.7923117108184354 -0.7228892135528404 -0.875989869754526 -0.8029350054651787 -0.7745306291961028 -0.7142128933018043 0.8835081488784936 0.6981086221175599 0.6788280547442516 0.8314452399437627 0.7089776793686736 0.686257829092557 0.8479269079203998 0.7197832902351037 0.7766085153002099 0.7707206313189714 0.6433780468254774 0.7042613275899563 0.5449850892040306 0.6604399928293054 0.538239753603128 0.8207940617906763 0.7038209965793016 4:3 5:3 6:4 7:1 8:1 9:1 10:1 11:3 12:4 13:2 16:5 17:3 18:4 19:2 20:2 21:4 22:3 
-0.410562838268445 -0.3318831491793781 -0.4115904576377328 -0.3169359148046888 -0.3861769660586185 -0.3609726043534016 -0.4151981054004562 -0.3961272347348159 -0.4240627930307755 -0.4445782317180179 0.429660974898802 0.333963011077926 0.3601630320056709 0.394653637178133 0.3768884304809053 0.4524258305288948 0.4652917459838832 0.3603200869247785 0.4319857474105265 0.3954257004086127 0.3163892485859808 1 0.2873669180138325 0.3481472556664952 0.9737414662144357 0.3765143937783742 0.4227706387047372 4:4 5:6 6:3 7:2 8:2 9:1 10:2 11:5 12:5 13:3 16:6 17:7 18:4 19:4 20:3 21:6 22:3 
-0 -0 -0 -0 -0 -0 -0 -0 -0 -0 0 0 0 0 0 0 0 0 0 0 0 0.1074240109873539 0 0 0 0 0 4:4 5:4 6:4 7:1 8:2 9:1 10:2 11:4 12:5 13:3 16:6 17:5 18:5 19:3 20:2 21:6 22:3 
-0 -0 -0 -0 -0 -0 -0 -0 -0 -0 0 0 0 0 0 0 0 0 0 0 0 0.427121643183989 0 0 0 0 0 4:4 5:6 6:5 7:2 8:2 9:2 10:2 11:5 12:6 13:4 16:6 17:8 18:6 19:4 20:4 21:6 22:4 
-0.5909588052073713 -0.4698455725734491 -0.5855973142179304 -0.5181047399456706 -0.5573323520707187 -0.5123754883329268 -0.5964062971340626 -0.5695679634286558 -0.5795931248643893 -0.5070171311695342 0.6246765895221121 0.5980118141134925 0.5004418699989172 0.589165875480787 0.528832923581915 0.5055955612868911 0.6156913206538944 0.5037168551207928 0.5952779779594293 0.5542627716350457 0.4067250430470878 0.9709987172852924 0.3986873094773019 0.4940996209851664 0.5708765941956927 0.5559068118916015 0.7146475681258065 4:4 5:6 6:5 7:2 8:2 9:2 10:2 11:5 12:6 13:4 16:6 17:8 18:6 19:4 20:4 21:6 22:4 
-0.1306488482042153 -0.09668386760247752 -0.1371847428906111 -0.08735010344952986 -0.1264563767606984 -0.1131451777265149 -0.155665183854978 -0.1643885216406349 -0.1957080474590864 -0.1160845476854775 -0.09841072585100097 0.1213682939178486 0.1111666858660633 0 0.1129886839436723 0.1160374692182094 0.1554070782776848 0.1010260540721859 0.1083711285592368 0 0.08627569691094141 0.1106527538377842 0.08456944805026651 0.1090811195017147 0.1013030220379479 0.1055949960874907 0.1198561994004863 1:2 2:2 3:2 4:5 5:6 6:6 7:4 8:4 9:4 10:4 11:4 12:7 13:5 16:6 17:7 18:6 19:4 20:4 21:4 22:11 23:13 
-0.1656828857094438 -0.1155166722597308 -0.1769910591019947 -0.1117111227954119 -0.09423974136872558 -0.141221517741266 -0.08996429965594202 -0.1156075417164458 -0.1212963129415026 -0.1508633683260447 -0.1105521246259818 0.133975252803696 0.1439593009388641 0.271520731074737 0.1366067828383022 0.1507596630256567 0.191873347542146 0.03151032897581394 0.1471033263541036 1 0.1084065797562689 0.1219998992097972 0.106739450210968 0.1402195490649333 0.1191644568111617 0.0902552907575767 0.1475955137871084 1:2 2:1 3:1 4:3 5:4 6:4 7:2 8:2 9:3 10:2 11:4 12:4 13:3 16:6 17:2 18:4 19:2 20:2 21:4 22:6 23:9 
-0.5314147298190118 -0.3960526938372534 -0.5521981499590901 -0.447648650874002 -0.5047939470707578 -0.4590797107220681 -0.6478227765157841 -0.50660693860972 -0.5168756095312669 -0.4680781943261781 -0.4015306927373128 0.4494391305020024 0.4490708891817569 0.4978310700009874 0.5486117831716396 0.4632776063616233 0.6121471602111476 0.4841482518717984 0.5134897773171501 0.4089269487371289 0.3491504672412459 0.4415471163307455 0.3335388715259574 0.4389079643158504 0.4133475414321322 0.4373546457320289 0.469760085238617 1:2 2:1 3:2 4:4 5:5 6:4 7:3 8:3 9:4 10:2 11:5 12:5 13:5 16:6 17:6 18:4 19:3 20:4 21:2 22:12 23:8 
-0.06824697933226524 -0.05303774965044853 -0.07213101733494806 -0.04061108070759732 -0.06640451036372659 -0.06003526371843954 -0.07697295764690974 -0.1129954724343869 -0.2230514941780475 -0.07179725538289164 -0.05400768004788999 0.07534081652808854 0.0591362380897566 0.5502678086748186 0.04707975202360971 0.06227104566363043 0.08246213119687443 0.1093476527542021 0.08495507545167171 0.6198276930302803 0.04529850944826165 0.05985619023894134 0.04351361784238216 0.05830344725579549 0.05397447519066518 0.05577624914319626 0.06325437755715921 1:2 2:2 3:1 4:5 5:6 6:5 7:3 8:4 9:4 10:2 11:6 12:6 13:4 16:6 17:7 18:5 19:3 20:4 21:3 22:12 23:10 
-0.4077713822804042 -0.3251211188632402 -0.3904152008510837 -0.3206502572070382 -0.3730598546514146 -0.3256834825459519 -0.4281710448652678 -0.4985370839651777 -0.333504900453844 -0.3318929547831256 -0.285637475225856 0.2848144013638089 0.3176585041119318 0.4388281648714039 0.3324468507647836 0.3244272489388785 0.4349065618180898 0.2920608542790208 0.3426624828703675 0.4519651710036776 0.2474519793259043 0.314879229668238 0.236251346346207 0.3110399322759298 0.2933514457943076 0.3170200194521475 0.333623260224393 1:2 2:1 3:2 4:4 5:4 6:4 7:4 8:2 9:2 10:4 11:4 12:4 13:5 16:5 17:5 18:4 19:4 20:2 21:4 22:8 23:10 
-0.2045001942488527 -0.1997135686688626 -0.15475790353726 -0.197909322347305 -0.2802554487122893 -0.1187805437801979 -0.6653798178671069 -0.5445817940827774 -0.4372062703031294 -0.2041814313041862 -0.1309544508517346 0.3123198215689687 0.1264071028303245 1 0.2272814483284714 0.15188513990102 0.1869638833856477 0.5371715522433977 0.247729877710474 0.3710941403778556 0.0953128287097694 0.1661592992506547 0.09445709547379684 0.1269819445845291 0.1129921542148752 0.1071765569893678 0.1393956512974444 1:1 2:1 3:2 4:3 5:4 6:3 7:2 8:3 9:3 10:2 11:4 12:4 13:3 16:5 17:4 18:4 19:2 20:2 21:3 22:8 23:7 
-0.1470862025063904 -0.1104733301769984 -0.152048845910824 -0.113055458926938 -0.1426197031988532 -0.1254518022024815 -0.165533668178273 -0.1366062949293661 -0.2321297781104452 -0.139042561490102 -0.1122101412521097 0.1315382490421852 0.1230026558175357 0.6731719824051868 0.1424765616383742 0.1278676517114817 0.1675270919276037 0.166466969735537 0.1460295349479646 0.6044442494306493 0.0963519685076981 0.1222398976251247 0.09077505388393896 0.1200721129791995 0.1126380239061323 0.1178674665076284 0.1278793369181983 1:2 2:2 3:2 4:5 5:7 6:5 7:4 8:4 9:4 10:4 11:6 12:6 13:5 16:6 17:8 18:6 19:4 20:4 21:4 22:11 23:13 
-0.3385365614948514 -0.2485967348294396 -0.3809387457047984 -0.2772470921970832 -0.3446061638517574 -0.3124101733478565 -0.3927712410673517 -0.3146372040585624 -0.3281210600969577 -0.3793854923047783 -0.2660616095052544 0.3304456358747442 0.3097017347185258 0.8547944603479357 0.3338811678570702 0.3202640324900977 0.4240174313285465 0.3179595010773167 0.3860568735357328 0.570296742502062 0.2400069402500568 0.3017688499352388 0.2293836967730048 0.302998465423294 0.2831768588400863 0.2895653004974396 0.3240862722006299 1:2 2:1 3:1 4:3 5:4 6:4 7:2 8:2 9:4 10:2 11:4 12:3 13:4 16:5 17:4 18:4 19:2 20:2 21:4 22:5 23:10 
-0.09103584485024889 -0.0617333552670296 -0.1135520708855472 -0.1120300889972476 -0.1083534062603783 -0.09680223161247062 -0.1129160133196592 -0.08990558478137165 -0.185428323221736 -0.1089859480791949 -0.08637905674894014 0.1088032945952504 0.09245774508943808 0.4501259689685854 0.1392998381669424 0.1018276003840518 0.125265525012371 0.1230938948646804 0.164919471024371 0.6538294721332837 0.07244864670632993 0.09408691917243645 0.06813422091113795 0.09343458795312581 0.08892910604519373 0.09917176601074285 0.09734817567847084 1:2 2:1 3:2 4:4 5:5 6:5 7:3 8:3 9:2 10:3 11:5 12:4 13:5 16:6 17:5 18:4 19:4 20:4 21:3 22:8 23:10 
-0.2298610391951876 -0.172740923937159 -0.2366529882540138 -0.1956202344232192 -0.2216054103084661 -0.1970951165683397 -0.2608657408498628 -0.2066918506000918 -0.27144661041305 -0.2021360261526317 -0.1757079244574021 0.2018665122495389 0.1930736226227555 0.6414041322834627 0.2018276427135142 0.1990968698173348 0.2614144105857999 0.1847062791151968 0.2329656798510229 0.8548144940071313 0.1498132650665594 0.1917424053837696 0.1419125436609338 0.1881868024851406 0.1778250271429277 0.1884304348485754 0.200229532198789 1:2 2:2 3:1 4:5 5:6 6:6 7:3 8:3 9:4 10:4 11:4 12:7 13:4 16:6 17:6 18:6 19:3 20:4 21:4 22:11 23:11 
-0.8616898791295745 -0.5726555049346384 -0.6981462948602932 -0.5314485523644333 -0.8116877596271893 -0.6175810972411343 -1 -1 -0.6462234466406267 -0.7044874054276726 -0.6569241513840004 0.8678370124610526 0.5657711248272489 1 0.5882160200853142 0.6244352778533689 0.7785194051084365 0.7192052099365952 0.7039353575977368 0.9547290905509647 0.4551501260990918 0.6303159151258542 0.4173089424504863 0.551534902936399 0.5872198269123521 0.8478904151940115 0.5990176587329263 1:1 2:1 3:1 4:3 5:2 6:3 7:2 8:2 9:2 10:1 11:4 12:2 13:3 16:4 17:2 18:4 19:2 20:2 21:2 22:5 23:6 
-0 -0 -0 -0 -0 -0 -0.001471770450822687 -0 -0 -0 -0 0 0 0 0 0 0 0 0 0 0 0 0 0 0 0 0 1:2 2:2 3:2 4:5 5:7 6:6 7:4 8:4 9:4 10:4 11:6 12:7 13:5 16:6 17:8 18:6 19:4 20:4 21:4 22:13 23:13 
-0.4869694353121099 -0.3679532111076471 -0.5045983783410636 -0.3840665829373929 -0.4652518272469947 -0.4195506314446235 -0.5089348640136863 -0.4713402218004749 -0.2601276782376732 -0.4291237626342701 -0.3709599849974111 0.4203070131118076 0.4110787077974242 0.4603491975878113 0.4395398843739749 0.4277980692294818 0.5621713514306954 0.3773691807267839 0.4556802273773774 0.3440515901323445 0.3186950911081903 0.4095632636536836 0.3044308633849923 0.4027699041621651 0.3799794524857335 0.4001699633109313 0.4302874687155656 1:2 2:2 3:2 4:5 5:7 6:6 7:4 8:4 9:4 10:4 11:6 12:7 13:5 16:6 17:8 18:6 19:4 20:4 21:4 22:13 23:13 
-0.1738897066648814 -0.1390516297914083 -0.2459076015711565 -0.1876852952848214 -0.1744162579556852 -0.2136381751965261 -0.1350309633180627 -0.1458235039837774 -0 -0.06894300970709288 -0 -0.1240332320779624 0.2191816606987565 0.02046776629287631 0.2322634130731667 0.1354813916124502 0.2607436751545932 0.1491301681016912 0.1315254551718689 0.1247630903255051 0.1621461176272903 0 0.1717095596923523 0.2141096959314034 0.04984193566854382 0 0.1677791479599594 4:3 5:3 6:4 7:2 8:4 9:6 10:1 11:4 12:3 13:3 16:6 17:2 18:6 19:4 20:2 21:5 22:5 23:3 
-0 -0 -0 -0 -0 -0 -0 -0 -0 -0 -0 -0 0 0 0 0 0 0 0 0 0 0 0 0 0 0.05424735106721721 0 4:4 5:4 6:4 7:3 8:5 9:6 10:1 11:5 12:4 13:3 16:6 17:4 18:6 19:5 20:4 21:5 22:6 23:3 
-0.2860423384068874 -0.2335180246842522 -0.3266640222139702 -0.2716541457571974 -0.3185269054416784 -0.2742653922590217 -0.3133352750699307 -0.3216502533390168 -0.3341573456922379 -0.2727090938135367 -0.1576542788770989 -0.342571050310658 0.2746785667942147 0.3896989675241014 0.2946448627542089 0.2766344382095289 0.3516098614201135 0.2623217148337371 0.2881482240964736 0.3277455789620042 0.2206178731579706 0.2336051297325022 0.2149086027399282 0.2795021352930392 0.2564420738001879 0.2825667447272025 0.2770084139869344 4:3 5:4 6:4 7:2 8:6 9:5 10:1 11:5 12:3 13:4 16:5 17:4 18:6 19:4 20:5 21:4 22:5 23:4 
-0.161019200818439 -0.126669640471632 -0.1607903014497176 -0.1305715055593958 -0.152102916663788 -0.1355752968470104 -0.1672987107757203 -0.1598882111113021 -0.1964763240608041 -0.1571015342178261 -0.2002480673940937 -0.1680708772200146 0.1324185527165679 0.1541169556586535 0.1411264372308586 0.146875670295319 0.1735110923595815 0.1333185196794767 0.2134315120343114 0.1677365277756948 0.1090315620531688 0.2448244680066697 0.1045421729679821 0.1270347876743167 0.1616154118674484 0.1776766380335043 0.1442892602017498 4:4 5:5 6:5 7:3 8:7 9:6 10:2 11:5 12:5 13:4 16:6 17:6 18:7 19:4 20:6 21:7 22:6 23:4 
-0.05179408116268526 -0.04104089110769274 -0.05645283296597999 -0.03583198235432315 -0.03871695178820759 -0.04655287657056652 -0.04673011675443032 -0.05306055207946263 -0 -0.04484837473744478 -0.01731404966212357 -0.06477573928341739 0.04846913986401094 0.03638787334799044 0.05081952494619065 0.04788748382649197 0.06073442174737442 0.04720068304239105 0 0.03992504350872664 0.03848392902279897 0 0.03383240325455018 0.04601927261189359 0.03426854595097096 0.03137588370330586 0.04873054282360562 4:4 5:6 6:5 7:4 8:8 9:8 10:1 11:5 12:6 13:4 16:6 17:7 18:8 19:6 20:6 21:7 22:7 23:4 
-0.4377623135868856 -0.3583556119156035 -0.3683945656023238 -0.3061218782460664 -0.3914495857720645 -0.315042009104501 -0.4648980748149726 -0.468344348636572 -0.8494546644709431 -0.6924406577634946 -0.7628929219610359 -0.600690619187654 0.3026421825500907 0.5960500138387138 0.3204316332647914 0.4466104033840035 0.4333661087148839 0.4087677222771992 0.5704596958348746 0.5230884854520783 0.2691030766985136 0.7437930899509658 0.2339352485711546 0.295459830508511 0.4875812289296191 0.8402477433764414 0.3831435004126819 4:3 5:3 6:3 7:2 8:4 9:5 10:1 11:4 12:3 13:3 16:5 17:3 18:5 19:4 20:2 21:5 22:4 23:3 
-0.1603418380910883 -0.146353102350673 -0.1367061100256166 -0.1327546476490848 -0.1407393649777487 -0.1274404314961418 -0.1761922137365743 -0.17440416976586 -0.4001162833798435 -0.1663011850674091 -0.1162356179423129 -0.1549610280295817 0.1269030828903763 0.2602345922412981 0.1396035049183169 0.1739197334468 0.1695378003577873 0.1793334936722313 0.2405557529078069 0.2047395814943369 0.1036379574452063 0.2285540161491651 0.09907548782492831 0.1281490843020375 0.1332655135542975 0.1111716673352078 0.1689129003617655 4:4 5:3 6:4 7:2 8:5 9:5 10:1 11:4 12:4 13:3 16:6 17:2 18:6 19:4 20:4 21:4 22:6 23:3 
-0.4606881289607313 -0.3175613743402475 -0.4430023069701726 -0.3218706834070758 -0.5088083155438947 -0.3650371493994524 -0.5986551417765936 -0.4760616787909855 -0.156905612435719 -0.3190221606981204 -0.443521223218434 -0.6800094237531893 0.3404725260793461 0.6478428456539853 0.3632935232001091 0.3596725462857651 0.4435422926908115 0.3603699221566279 0.3192025131781049 0.4402060821719112 0.2836853087834687 0.3786345437005447 0.2666218331650256 0.3304844866366321 0.3934169862836768 0.4941860303044825 0.3509188961907144 4:3 5:3 6:3 7:2 8:4 9:5 10:1 11:4 12:3 13:3 16:5 17:2 18:6 19:2 20:4 21:4 22:5 23:3 
-0.2328977234948386 -0.183713563882575 -0.2403339349570417 -0.1840306691640777 -0.2219004292278471 -0.204938415277954 -0.2371163106889625 -0.2236923924274974 -0.1130636678846792 -0.2039955145177807 -0.1647783525906176 -0.2444377803771565 0.2004883497532934 0.2151164712482566 0.2114497351139096 0.1961698912427008 0.2609617502166677 0.1965562083308374 0.203699034571124 0.2061045445441815 0.1646314463566878 0.1581083672322556 0.1569568913345574 0.1960824320775412 0.1802650845323573 0.1545478295436709 0.2060280426145997 4:4 5:5 6:4 7:4 8:6 9:8 10:1 11:5 12:6 13:3 16:6 17:6 18:7 19:5 20:5 21:7 22:6 23:4 
-0.6416436994182011 -0.5043241834733225 -0.6559038552073599 -0.5245207765085691 -0.6354902252243156 -0.5643907801369617 -0.6795286891974991 -0.6377000798313592 -0.6626760594659554 -0.6028371802110906 -0.4986341929824348 -0.6986771182679895 0.5515967125167139 0.657212657942321 0.5875416884779824 0.5699974366795668 0.7177903889677437 0.5615440579930305 0.6442536378238651 0.6255069378950721 0.4513062197263602 0.5529953708478704 0.4344749178437057 0.5432462973180756 0.5272586804032701 0.5259136687150102 0.5741672676148862 4:4 5:6 6:5 7:4 8:8 9:8 10:2 11:5 12:6 13:4 16:6 17:8 18:8 19:6 20:6 21:7 22:7 23:4 
-0.3203618000973948 -0.2572875924018951 -0.3274110494822722 -0.2719641730357162 -0.3389189565089003 -0.2803489508231899 -0.3589727310321656 -0.3420542038673139 -0.6646764018041055 -0.3303015551301159 -0.2931294811082545 -0.3598285655113687 0.2757492064354737 0.368285974986929 0.2965558916481316 0.2978254149346293 0.3588076414159876 0.2854177068113287 0.4208575359381484 0.3318615800424514 0.2229202752219801 0.4321749227375 0.2135728461572378 0.2786364694808403 0.2894739182935511 0.3263892126811676 0.2972461133468477 4:4 5:5 6:4 7:4 8:7 9:6 10:2 11:5 12:5 13:4 16:6 17:7 18:6 19:6 20:4 21:7 22:6 23:4 
-0 -0 -0 -0 -0 -0 -0 -0 -0 -0 -0 -0 -0 0 0 0 0 0 0 0 0.2549799357016769 0 0.1417389451220662 0 0 0 0 1:3 2:3 3:1 4:4 5:3 6:1 7:2 8:1 9:1 10:2 11:1 12:1 13:2 15:2 16:8 17:8 18:3 19:3 20:1 
-0.3308753314235519 -0.2665340072944737 -0.3419581457238018 -0.2740198883047538 -0.3199141829343734 -0.2940710681861308 -0.3419088955192638 -0.3314236992870122 -0.3137035574494199 -0.3270166621601481 -0.2684752629971906 -0.3569096225479346 -0.3046662273356388 0.3322765103392094 0.3096374571554394 0.324923167292597 0.3700458723578603 0.2945762139510323 0.3319656759830166 0.3202943923856469 0.3525434539638845 0.2875563299270843 0.3012016777497875 0.28518726370861 0.2705440162102635 0.2828081047500128 0.3010836203083739 1:4 2:3 3:1 4:5 5:3 6:2 7:1 8:2 9:2 10:1 11:2 12:2 13:1 15:2 16:11 17:9 18:2 19:4 20:1 
-0 -0 -0 -0 -0 -0 -0 -0 -0 -0 -0 -0 -0 0 0 0 0 0 0 0 0 0 0.008557499254822907 0 0 0 0 1:4 2:4 3:2 4:4 5:4 6:2 7:1 8:2 9:2 10:2 11:1 12:2 13:2 15:2 16:11 17:11 18:2 19:4 20:2 
-0.8093814478051384 -0.6490279350009042 -0.8280704733612729 -0.6677237078659549 -0.799622684672313 -0.7179848293169201 -0.8513353298529878 -0.8097405341255221 -0.7613580987981357 -0.7922919064419616 -0.665449919828873 -0.8678274823488262 -0.7390120527354108 0.8073378679240993 0.7470859607185024 0.7707322596187047 0.8999925408446468 0.7185252732815117 0.8102116152365095 0.7763711404042568 0.7751924872203774 0.7177666105457151 0.390678771924745 0.6901171939359697 0.7281588909618179 0.7101374469484818 0.7329132816172769 1:3 2:3 3:1 4:3 5:3 6:1 7:2 8:1 9:1 10:2 11:1 12:1 13:2 15:2 16:7 17:9 18:1 19:3 20:2 
-0.6560211967905233 -0.5252609092128204 -0.6706413641992077 -0.540153355207333 -0.6468357705031301 -0.581480815899353 -0.6890373309552613 -0.655534757953503 -0.6170965603767713 -0.634350187804206 -0.5359993080973478 -0.7053808787114165 -0.6006188310910153 0.6548250299799836 0.6081936668269147 0.6241037658274581 0.7295642388239289 0.5787626823632548 0.6423772049366837 0.6304724914739275 0.4343288588794104 0.5722485646964198 0.8378201894118038 0.5602999122624787 0.5603565930757929 0.5651026126800255 0.5928771907135815 1:4 2:3 3:2 4:4 5:3 6:1 7:2 8:1 9:2 10:1 11:2 12:1 13:2 15:2 16:11 17:7 18:4 19:2 20:2 
-0 -0 -0 -0 -0 -0 -0 -0 -0 -0 -0 -0 -0 0 0 0 0.00829356098472819 0 0 0 0 0 0 0 0 0 0 1:4 2:5 3:2 4:5 5:5 6:2 7:2 8:2 9:2 10:2 11:2 12:2 13:2 15:2 16:12 17:13 18:4 19:4 20:2 
-0.9042720991072987 -0.7258071129583502 -0.9276127590116731 -0.7461190567088691 -0.8841836957523072 -0.8014613842545562 -0.9421812719646527 -0.9037670493301913 -0.8518698100257784 -0.8656114762296429 -0.7303230849626267 -0.9723663282834477 -0.8283028691367794 0.9041810929358835 0.8362231375009397 0.8068915736092354 0.9993274138049404 0.7964874499155993 0.8896283460301799 0.8706968005286903 0.5945965169895787 0.7883841790025132 0.8030563676978788 0.7736495274376131 0.764883585889654 0.7778978004982126 0.8184826541698794 1:4 2:5 3:2 4:5 5:5 6:2 7:2 8:2 9:2 10:2 11:2 12:2 13:2 15:2 16:12 17:13 18:4 19:4 20:2 
-0 -0 -0 -0 -0 -0 -0 -0 -0 -0 -0 -0 -0 0 0 0.02035571574127913 0 0 0 0 0.05417364059410823 0 0.1707127699211857 0 0 0 0 1:4 2:3 3:2 4:4 5:4 6:2 7:1 8:2 9:1 10:2 11:2 12:1 13:2 15:2 16:11 17:8 18:4 19:3 20:2 
-0.1618553027911304 -0.1202793440681189 -0.1450647697589974 -0.1150522791669477 -0.1195616410406965 -0.1136320388626922 -0.3383130155791144 -0.1014125825863536 -0 -0.06672258342176957 -0.0435392554374725 -0.7637616418423697 -0 -0.1192309033796163 0.171946104265029 0.1311994853395046 0.1549620433162475 0.5543437319723621 0.1272712224378537 1 0.09345720755535555 0.0990475579250104 0.09022380826344076 0.1169654569505042 0.1068226752939845 0.04314442393518645 0.1291563129965125 4:5 5:3 6:4 7:2 8:2 9:3 10:3 11:3 12:4 13:3 14:1 16:5 17:4 18:4 19:2 20:3 21:2 22:6 23:7 
-0.1555169162449639 -0.1436139800012906 -0.1382928295922749 -0.1476262136423162 -0.1478652223792896 -0.1168832629320364 -0.218005069781264 -0.2991019226453585 -0.836370007739949 -0.3715344485838663 -0.2311277052790937 -1 -0.6408269867896488 -0.1158855654084159 0.1384891894310996 0.1590391374856571 0.1747458593795262 0.2532560030137824 0.4548376572258118 1 0.0875107955976938 0.2138031912590931 0.08887260505568907 0.1217819573120556 0.1185130883864214 0.2251272161604818 0.132017948925219 4:4 5:4 6:4 7:2 8:3 9:3 10:2 11:4 12:4 13:3 14:1 16:5 17:4 18:4 19:3 20:2 21:3 22:6 23:7 
-0 -0 -0 -0 -0 -0 -0 -0 -0 -0 -0 -0 -0 -0 0 0 0 0 0 1 0 0 0 0 0 0 0 4:5 5:7 6:5 7:4 8:4 9:4 10:4 11:6 12:6 13:5 14:2 16:6 17:8 18:6 19:4 20:4 21:4 22:9 23:11 
-0.3252826381817098 -0.2526172868248248 -0.3336935978037279 -0.262812953747864 -0.3165759324894316 -0.2810647860021783 -0.3605757856433048 -0.3286287930980327 -1 -0.3083737053978142 -0.2548223652303617 -0.4489148165764054 -0.3299292897428642 -0.2779950695867011 0.3052214680085099 0.2886176355381336 0.3686346095559098 0.3081609110924037 0.4028346303995947 1 0.221334021777392 0.2799881788590153 0.2109751188924085 0.2734807303953875 0.2597325459491183 0.2705955915064127 0.2901811710345263 4:5 5:7 6:5 7:4 8:4 9:4 10:4 11:5 12:7 13:5 14:2 16:6 17:8 18:6 19:4 20:4 21:4 22:9 23:11 
-0 -0 -0 -0 -0 -0 -0 -0 -0 -0 -0 -0.07711424124227025 -0 -0 0 0 0 0.08967727721704959 0.0886976729052063 1 0 0 0 0 0 0 0 4:5 5:7 6:6 7:3 8:4 9:4 10:4 11:6 12:6 13:4 14:2 16:6 17:8 18:6 19:3 20:4 21:4 22:10 23:10 
-0 -0 -0 -0 -0 -0 -0 -0 -0 -0 -0 -0 -0 -0 0 0 0 0 0 0.5560339245073203 0 0 0 0 0 0 0 4:5 5:7 6:6 7:4 8:4 9:4 10:4 11:6 12:7 13:5 14:2 16:6 17:8 18:6 19:4 20:4 21:4 22:11 23:11 
-0 -0 -0 -0 -0 -0 -0 -0 -0 -0 -0 -0 -0 -0 0 0 0 0 0 1 0 0 0 0 0 0 0 4:5 5:7 6:6 7:4 8:4 9:4 10:4 11:6 12:7 13:5 14:2 16:6 17:8 18:6 19:4 20:4 21:4 22:11 23:11 
-0.6099987336006716 -0.4657131965072113 -0.6331546315909299 -0.4911020291522544 -0.6029362707050439 -0.5361416697316235 -0.6258695574771648 -0.6152392031161729 -0.6628737132570952 -0.5627178513251633 -0.4557523733143995 -1 -0.4464623972917611 -0.523092318316567 0.5692368435593335 0.5319154626437911 0.6962513667040304 0.4975203713132881 0.6377583782216518 1 0.4181346245672703 0.5001994530963236 0.3984030297769805 0.5142366004027947 0.493499579609507 0.5017132590663503 0.5445725281106688 4:5 5:4 6:4 7:4 8:2 9:4 10:2 11:4 12:5 13:4 14:1 16:5 17:6 18:4 19:3 20:2 21:4 22:6 23:9 
-0 -0 -0 -0 -0 -0 -0 -0 -0 -0 -0 -0 -0 -0 0 0 0 0 0 1 0 0 0 0 0 0 0 4:5 5:7 6:6 7:4 8:4 9:4 10:4 11:6 12:7 13:5 14:2 16:6 17:8 18:6 19:4 20:4 21:4 22:11 23:11 
-0 -0 -0 -0 -0 -0 -0 -0 -0 -0 -0 -0 -0 -0 0 0 0 0 0 1 0 0 0 0 0 0 0 4:5 5:7 6:6 7:4 8:4 9:4 10:4 11:6 12:7 13:5 14:2 16:6 17:8 18:6 19:4 20:4 21:4 22:11 23:11 
-0.8568260993789926 -0.6379872085985279 -0.8378963337737064 -0.6495461052845609 -0.9549676570996466 -0.7200798170198531 -1 -0.9446026003973105 -0.6320779424238244 -0.7635317962547281 -0.7552702828244328 -1 -0.9018131779551496 -0.6889836015070803 0.7262176968447524 0.7372499457379166 0.9276413214330241 0.9456820732069126 0.7567670555878931 0.680168090830401 0.5745584609828043 0.7566667236276045 0.5242542494063138 0.6725736230808185 0.7184454416855456 0.9578727832954705 0.7255820127633421 4:4 5:2 6:4 7:1 8:3 9:2 10:2 11:3 12:2 13:3 14:1 16:4 17:3 18:4 19:1 20:3 21:1 22:6 23:5 
-0 -0 -0 -0 -0 -0 -0 -0 -0 -0 -0 -0 -0 -0 0 0 0 0 0 1 0 0 0 0 0 0 0 4:5 5:7 6:6 7:4 8:4 9:4 10:4 11:6 12:7 13:5 14:2 16:6 17:8 18:6 19:4 20:4 21:4 22:11 23:11 
-0 -0 -0 -0 -0 -0 -0 -0 -0 -0 -0 -0 -0 -0 0 0 0 0 0 1 0 0 0 0 0 0 0 4:5 5:7 6:6 7:4 8:4 9:4 10:4 11:6 12:7 13:5 14:2 16:6 17:8 18:6 19:4 20:4 21:4 22:11 23:11 
-0.5853017825044498 -0.4522118428831397 -0.6103940863072863 -0.4820605391304318 -0.5726080989442474 -0.5147118460197716 -0.6365325769294417 -0.5869471336480578 -0.7098835616061165 -0.5220783940318667 -0.4489166550743632 -1 -0.5566060729235932 -0.5047449696145414 0.5680729319101714 0.5200084058883746 0.6716909677857884 0.5628310014390774 0.6837236409108133 1 0.4014047832958494 0.4937872739240268 0.385187650525888 0.4962993978336034 0.4704071160309467 0.4826169472623447 0.5267146846591441 4:5 5:5 6:6 7:2 8:4 9:4 10:2 11:6 12:4 13:5 14:2 16:6 17:6 18:5 19:3 20:4 21:3 22:10 23:8 
-0 -0 -0 -0 -0 -0 -0 -0 -0 -0 -0 -0 -0 -0 0 0 0 0 0 1 0 0 0 0 0 0 0 4:5 5:7 6:6 7:4 8:4 9:4 10:4 11:6 12:7 13:5 14:2 16:6 17:8 18:6 19:4 20:4 21:4 22:11 23:11 
-0 -0 -0 -0 -0 -0 -0 -0 -0 -0 -0 -0 -0 -0 0 0 0 0 0 1 0 0 0 0 0 0 0 4:5 5:7 6:6 7:4 8:4 9:4 10:4 11:6 12:7 13:5 14:2 16:6 17:8 18:6 19:4 20:4 21:4 22:11 23:11 
-0 -0 -0 -0 -0 -0 -0 -0 -0 -0 -0 -0 -0 -0 0 0 0 0 0 1 0 0 0 0 0 0 0 4:5 5:7 6:6 7:4 8:4 9:4 10:4 11:6 12:7 13:5 14:2 16:6 17:8 18:6 19:4 20:4 21:4 22:11 23:11 
-0 -0 -0 -0 -0 -0 -0 -0 -0 -0 -0 -0.9660309493164341 -0 -0 0 0 0 0 0 1 0 0 0 0 0 0 0 4:5 5:7 6:6 7:4 8:4 9:4 10:4 11:6 12:7 13:5 14:2 16:6 17:8 18:6 19:4 20:4 21:4 22:11 23:11 
-0.5524169705584057 -0.4256775113434213 -0.569714167623997 -0.4365236735252611 -0.533005094389054 -0.4802976237494116 -0.5871016864349792 -0.5550109629311738 -0.3255943591618152 -0.5085368084271325 -0.4268949410038694 -0.5824718672374495 -0.4697761940321086 -0.4686880733662539 0.4953093277538909 0.4876234374474157 0.6280130788398441 0.4119569901942786 0.4328885641701514 0.9910749136989649 0.3728567285999194 0.4662983224566706 0.3583118904278247 0.4582068791809154 0.4410247016309475 0.4594207462167025 0.4903855492637566 4:5 5:7 6:6 7:4 8:4 9:4 10:4 11:6 12:7 13:5 14:2 16:6 17:8 18:6 19:4 20:4 21:4 22:11 23:11 
-0.2493001638602838 -0.1981645783487499 -0.255395819958188 -0.2050543326537442 -0.2465744167735204 -0.2188231261208619 -0.2973881502298081 -0.2493007444808734 -0.2313542886101272 -0.11213682354366 -0.1988102154085727 -0.2499371463210196 -0.2271022557610437 -0.2124202564182973 -0.2371534861062706 0.2267045743182127 0.2811185394123328 0.5074917486940654 0.2077523709340699 0.2214032862241335 0.1708502901398457 0.2163347817488452 0.1675360182439996 0.2111208524022732 0.2086758714086657 0.2132737358104116 0.2231955070979104 1:2 2:1 3:2 4:5 5:5 6:3 7:2 8:4 9:2 10:4 11:2 12:3 13:3 16:11 17:7 18:2 19:1 20:2 21:1 22:9 23:5 
-0 -0 -0 -0 -0 -0 -0 -0 -0 -0 -0 -0.003481435306507426 -0 -0 -0 0 0.02850104135205833 0 0 0 0 0 0 0 0 0 0 1:2 2:2 3:2 4:6 5:8 6:5 7:4 8:4 9:4 10:4 11:4 12:4 13:4 16:13 17:13 18:2 19:2 20:2 21:2 22:10 23:9 
-0.3271326976491099 -0.2596747177557203 -0.3357647654805093 -0.2721425022242305 -0.3231018814730977 -0.2879680652914131 -0.3590255134896564 -0.3301027612357795 -0.3066034093142841 -0.4901255735971349 -0.2626520407493807 -0.3656119410473525 -0.3000478198976836 -0.2840478593988596 -0.346068876055275 0.303729740865783 0.3673826362262327 0.4555845148463247 0.4333433534038234 0.3172753618757803 0.2324161770121912 0.2832347611783481 0.2213464441189733 0.2776060726671104 0.2751561702784915 0.2793625544910661 0.2942416157459083 1:2 2:2 3:1 4:6 5:5 6:5 7:3 8:3 9:4 10:3 11:3 12:4 13:3 16:13 17:8 18:2 19:2 20:1 21:2 22:9 23:7 
-0 -0 -0 -0 -0 -0 -0 -0 -0 -0 -0 -0 -0 -0 -0 0 0 0.5588927336873332 0 0 0 0 0 0 0 0 0 1:2 2:2 3:2 4:6 5:8 6:4 7:4 8:4 9:4 10:4 11:4 12:4 13:4 16:13 17:12 18:2 19:2 20:2 21:2 22:10 23:9 
-0.319064519906511 -0.2515980638598415 -0.3291989817788846 -0.2539826616051378 -0.3041445539485477 -0.2804141208289208 -0.315312096534863 -0.3135337817001752 -0.3190127026605907 -0.4879928726527607 -0.2528733554081038 -0.3839553844687928 -0.2905966504713192 -0.2715335770369287 -0.3326252968155303 0.3059806550897462 0.3561831587810457 0.2186113237958448 0.4294810313528777 0.3568611506566197 0.2167278100337442 0.2735062969174044 0.2105211943256193 0.2700123752677732 0.2643104967897923 0.2709996087933553 0.2876637732992195 1:2 2:1 3:2 4:5 5:5 6:4 7:2 8:4 9:2 10:4 11:2 12:4 13:4 16:12 17:7 18:2 19:2 20:1 21:2 22:8 23:7 
-0.9158107624560153 -0.7248676791908697 -0.9414400178319168 -0.7455024602908597 -0.8948684814732564 -0.8055310334521293 -0.9657495670228896 -0.9168446900145985 -0.861900917755914 -0.9987244375515024 -0.7314121149791817 -1 -0.8343264276658854 -0.7909655897474724 -0.9238749232245191 0.8239856789875402 1 0.7303002397019983 0.9332004417716534 0.8880365445582417 0.6443614777987641 0.791556989227948 0.6161852946326805 0.776326366222043 0.7665709050405146 0.7809501531675328 0.8244756759635624 1:2 2:2 3:2 4:6 5:8 6:5 7:4 8:4 9:4 10:4 11:4 12:4 13:4 16:13 17:13 18:2 19:2 20:2 21:2 22:10 23:9 
-0.09686056675792398 -0.07733221656212923 -0.1023691875716129 -0.07216736070859435 -0.08620327059528782 -0.08710779809790864 -0.07392498529717728 -0.08855418179949784 -0.08112068797775557 -0.0865579712884865 -0.07571361592137998 -0.07856493859993975 -0.08618160290915482 -0.08190879918006828 -0.07655803881255915 0.05865627923851762 0.1112016428267893 0.06606729686481837 0.05589467707320556 0.07773093465909629 0.0628200423252664 0.08299680126135361 0.06266948014373476 0.08386189105547851 0.08065797685597417 0.08209054787956785 0.08815578003475247 1:2 2:2 3:1 4:6 5:6 6:3 7:3 8:4 9:2 10:4 11:4 12:2 13:4 16:12 17:9 18:1 19:2 20:1 21:2 22:9 23:7 
-0.5766817864334665 -0.4565581819348361 -0.5943877750557866 -0.463269769274804 -0.5551729120082717 -0.5088728183569544 -0.5857651085541774 -0.569872800818644 -0.5371740277138295 -0.5561128502065443 -0.4592271830308108 -0.6256834286005096 -0.5245845616845918 -0.4960029051195131 -0.5627474498902062 0.5036248698921199 0.6478201964127788 0.3870845079123625 0.5495409605863103 0.5443063916351121 0.4005596412204031 0.4977078164859139 0.3855705720804425 0.4899503771238929 0.4814985173528383 0.4915488685059094 0.5207383939525798 1:2 2:1 3:2 4:5 5:6 6:2 7:4 8:2 9:4 10:2 11:4 12:2 13:4 16:12 17:8 18:1 19:1 20:2 21:1 22:10 23:5 
-0 -0 -0 -0 -0 -0 -0 -0 -0 -0 -0 -0 -0 -0 -0 0 0 0.5494777353276159 0 0 0 0 0 0 0 0 0 1:2 2:1 3:2 4:5 5:5 6:4 7:3 8:3 9:3 10:3 11:3 12:2 13:4 16:10 17:9 18:2 19:1 20:2 21:1 22:8 23:7 
-0.4054170901851369 -0.3195121821479195 -0.4095109902134551 -0.3629784448767303 -0.4297873305092909 -0.3511594428284286 -0.5197930198371356 -0.4429331759733304 -0.4100364399658742 -0.5576473947553254 -0.3310734040606356 -0.5430221415615474 -0.3748908962379869 -0.3642612353006569 -0.4954654908684262 0.4795091860240957 0.454870282258138 0.6961314901190223 0.5519330807433268 0.4482282230738496 0.3170163718432462 0.3542603247720319 0.2863168567015216 0.3389724502674043 0.3449585964641286 0.3469427942807543 0.3602362163563713 1:2 2:1 3:2 4:4 5:5 6:3 7:3 8:3 9:2 10:3 11:3 12:2 13:4 16:10 17:8 18:2 19:1 20:2 21:1 22:7 23:6 
-0.3773037233717264 -0.298069928522688 -0.3865612882136995 -0.3074588896731619 -0.3696565253924626 -0.3312767617284934 -0.3998432414089769 -0.3788203823561765 -0.3552232053150065 -0.4183794446433891 -0.311251560996085 -0.4070306880788597 -0.3479422028100254 -0.3222686026729223 -0.3780089800173095 -0.3310678480790231 0.421181062670822 0.3296354172508303 0.3852096280765387 0.3620610732303327 0.2583942820038923 0.3276257090470941 0.2521313327076455 0.3191435346125305 0.3185137337607312 0.3229342144457117 0.3378090853942546 1:2 2:2 3:2 4:5 5:4 6:5 7:2 8:4 9:4 10:4 11:4 12:4 13:5 16:13 17:11 18:1 19:3 20:6 21:7 22:4 23:2 
-0.5844521593076116 -0.4664157918926859 -0.6076510241827081 -0.4885083093455052 -0.5652121415814 -0.522549659787335 -0.5948856750492697 -0.5770399736482428 -0.5445469479118467 -0.9417240645890947 -0.4366778774680025 -0.6312930961484562 -0.5220304479899021 -0.5126632386780035 -0.5823216479508706 -0.6300638752449306 0.662141139844785 0.5109273946263635 0.7003361959553839 0.5631911664500885 0.3990829176999296 0.4942438239531133 0.4010151227024321 0.5053717123971853 0.485654886833999 0.4873310151719886 0.535590992591074 1:2 2:1 3:2 4:4 5:4 6:4 7:3 8:4 9:3 10:3 11:3 12:3 13:5 16:13 17:7 18:2 19:3 20:5 21:5 22:4 23:2 
-0 -0 -0 -0 -0 -0 -0 -0 -0 -0 -0 -0 -0.002342501392519258 -0 -0 -0 0 0 0 0 0 0 0 0 0 0 0 1:2 2:2 3:2 4:5 5:5 6:5 7:4 8:5 9:4 10:4 11:4 12:4 13:5 16:13 17:13 18:2 19:4 20:6 21:7 22:4 23:2 
-0.6562316711359576 -0.5400032934646156 -0.6568193536011894 -0.5380726206910276 -0.6273913869084744 -0.5594200723152716 -0.7023440409991493 -0.6542066295518313 -0.6491567596457726 -0.9116327937320305 -0.6716817138905872 -0.6814649825027374 -0.5502208796510761 -0.7119210801227712 -0.6288464013367237 -0.5561910539840657 0.720659597966763 0.5561519385253212 0.8760905975694182 0.6104508272340837 0.7386756988742983 0.7288377316223161 0.4445885140869987 0.5355111161146975 0.9072423807026091 0.6438923499369004 0.58179950479572 1:1 2:2 3:1 4:4 5:2 6:3 7:2 8:3 9:2 10:2 11:3 12:3 13:3 16:9 17:6 18:1 19:3 20:4 21:4 22:2 23:2 
-0.3936136396659786 -0.3147790980356761 -0.3860645995123008 -0.3577281195766614 -0.4917415608976959 -0.3262026477928642 -0.5400401746236104 -0.4489595156352524 -0.4349980048345131 -0.3831422817158519 -0.4306093317164175 -0.4328154606374406 -0.4460475007539067 -0.3241127474511232 -0.3831281203035685 -0.4015789438436986 0.4346466912258445 0.3725952466486617 0.4145186965773041 0.3905320454118596 0.2423392651657319 0.400329318731678 0.2735339689733664 0.3124283550282757 0.3446659042770975 0.36428724215717 0.330503020005199 1:1 2:2 3:1 4:3 5:3 6:3 7:2 8:4 9:2 10:2 11:3 12:3 13:3 16:10 17:5 18:2 19:2 20:4 21:4 22:3 23:2 
-0.05765992561881865 -0.02320649139979869 -0.05717942616892611 -0.008744740001699142 -0.02757218839766331 -0.05569972627442096 -0.02780512346311385 -0.04699374825343829 -0.0153915087578104 -0 -0 -0.0786082661978683 -0.07455499801562401 -0 -0.1066528035007588 -0.05970536731741302 0.05649030312605556 0.1286824124303602 0 0.0605540915789745 0 0 0.04896297084701355 0.05660843271258731 0 0.02439569873685029 0.05551666879490368 1:1 2:2 3:1 4:4 5:2 6:3 7:2 8:4 9:2 10:2 11:3 12:3 13:3 16:10 17:5 18:2 19:2 20:4 21:4 22:3 23:2 
-0.7762397971068753 -0.6175258410226171 -0.7963660788090987 -0.6358082572199595 -0.7631296314384588 -0.6847148479881083 -0.8170082491419689 -0.7777264624354933 -0.7313443009177111 -0.8560600615310173 -0.6191963853318966 -0.8387351810294726 -0.707935879304202 -0.6760408131644542 -0.7766955569715622 -0.7235838959468843 0.8690075450852993 0.6826187654290249 0.8035543151176939 0.746764380934532 0.5466254315813719 0.6768477462439385 0.5256749071290769 0.6599209250083545 0.6527520528091743 0.6643005702045765 0.7007878336365496 1:2 2:2 3:2 4:5 5:5 6:5 7:4 8:5 9:4 10:4 11:4 12:4 13:5 16:13 17:13 18:2 19:4 20:6 21:7 22:4 23:2 
-0.2523180503749851 -0.1902316626813164 -0.2618636744475002 -0.1966808496384885 -0.2446481477326029 -0.2156385592412283 -0.267303123836129 -0.2527913404721074 -0.229415189872301 -0.2302815926363701 -0.1908678950253507 -0.2786451092193384 -0.2249915912260235 -0.2112721045986379 -0.2520166189879523 -0.227404524533451 -0.2194942597073938 0.2131536475838743 0.2410349702399171 0.2404089791474611 0.1607838345872745 0.2098910964175613 0.1542475112150543 0.2063846533588869 0.1926334791176978 0.2069672975927558 0.2210251419285491 4:8 5:9 6:7 7:4 8:5 9:5 10:6 11:5 12:5 13:6 16:10 17:7 18:1 19:2 20:2 21:10 22:6 23:2 24:2 25:1 26:10 27:7 
-0.3605885409729096 -0.2714788025851108 -0.373198480231747 -0.2810018652175207 -0.3497906126277992 -0.3089456074776653 -0.3797349448559616 -0.360035912743471 -0.3276364791200994 -0.3277583927514151 -0.2710175175319033 -0.3980568591553079 -0.3200596755956515 -0.3015568446180971 -0.3603312762535607 -0.3251689948679785 -0.3139525935691831 0.3047705271087218 0.344698203987337 0.3426738260972543 0.231099260245902 0.2995065043152129 0.2197079314521921 0.2945717965612258 0.2737758826301779 0.293909174413463 0.3166600472287603 4:8 5:9 6:6 7:4 8:6 9:5 10:4 11:6 12:5 13:4 16:10 17:7 18:2 19:1 20:2 21:10 22:5 23:1 24:2 25:1 26:10 27:6 
-0.5748264250838212 -0.4321306413115162 -0.5950377315675746 -0.4480998421359594 -0.5571289141048124 -0.4907096148912826 -0.60687319136859 -0.5741155782651128 -0.5219428511019768 -0.5225971292059511 -0.432049762819894 -0.6342390652224725 -0.5119398966118594 -0.4803327153620572 -0.5745497114330624 -0.5179916427351587 -0.5010093757604199 0.4853161150248879 0.5501191055929221 0.5465557121057801 0.3673502835504728 0.4771691580415827 0.3516608767363931 0.46920327317641 0.4370488178106565 0.4696241154120767 0.5045615254542145 4:8 5:8 6:5 7:5 8:4 9:6 10:3 11:6 12:3 13:6 16:10 17:6 18:1 19:2 20:1 21:10 22:4 23:2 24:2 25:1 26:10 27:5 
-0.3047723960123854 -0.2295811103322743 -0.3158004973875666 -0.2364200883144355 -0.2931077190086048 -0.2605586049186233 -0.3190633581623031 -0.3031605565740739 -0.278517068666116 -0.2895846042546659 -0.2635332405229864 -0.3349027485102176 -0.280335256925156 -0.2555822626963981 -0.299790411418948 -0.2743448300855874 -0.2777751844817735 0.2534607059286812 0.2978795354496387 0.2890005051406526 0.196359418861232 0.2698909539487319 0.1869282683274001 0.2453668710447644 0.243754358739125 0.2637904269473165 0.2681679898944263 4:5 5:5 6:4 7:3 8:3 9:3 10:3 11:3 12:3 13:3 16:6 17:4 18:1 19:2 21:6 22:4 24:2 26:5 27:5 
-0.2924691847815062 -0.219054608688127 -0.3032617273863357 -0.2281825440592597 -0.2831779561887635 -0.2503197202312317 -0.3061951390029017 -0.2899931000282953 -0.2674981436204568 -0.2693430740014212 -0.2094349819954492 -0.3208381062581068 -0.2553113650138677 -0.2442207592868525 -0.2892876745206729 -0.2635164158165912 -0.2484711829400081 0.2371887209302725 0.282939184907914 0.278423822824078 0.1833447361210938 0.231839724697334 0.1781308641479914 0.2414106869698597 0.2144591570269034 0.2310971755476409 0.2552380999153576 4:5 5:6 6:5 7:2 8:4 9:2 10:4 11:3 12:3 13:4 16:5 17:5 18:1 19:2 21:7 22:3 23:2 24:1 25:1 26:6 27:5 
-0.6524132624948758 -0.4979373617975975 -0.6719484909643934 -0.5107913506623033 -0.639852020827644 -0.5535525555674209 -0.7051325561182422 -0.667320788608745 -0.6278167322413645 -0.6367247235226687 -0.5670104165567889 -0.7318348745053119 -0.6023728463361041 -0.5436831824264168 -0.681007665673194 -0.5900933402627795 -0.5872969100288346 0.6269803503875756 0.6753448861284507 0.6289160852876701 0.4325715064715195 0.6170610772497741 0.3964228969611877 0.5421939128053492 0.5532714159424792 0.5913728550584769 0.5813910405684116 4:4 5:5 6:3 7:3 8:3 9:3 10:3 11:3 12:3 13:3 16:4 17:6 18:1 19:1 20:1 21:4 22:5 23:1 25:2 26:3 27:5 
-0.7137507364683926 -0.5375026673433825 -0.7395935100421935 -0.5557692728976439 -0.692603050636222 -0.6100343244896886 -0.7528540131828119 -0.7133407076320116 -0.6485094370743715 -0.6490747990458321 -0.5369222808137737 -0.7873905566226005 -0.6353665067871346 -0.5967448158381932 -0.7135518170958602 -0.6438634700230268 -0.6215626494231518 0.6024431815449758 0.6825577313710338 0.6785771926834325 0.4570600587961586 0.5928170500292683 0.4362871417494367 0.5824096982513605 0.5436706468784051 0.582569030652652 0.6270685862323689 4:8 5:11 6:8 7:6 8:6 9:6 10:6 11:6 12:6 13:6 16:10 17:10 18:2 19:2 20:2 21:10 22:8 23:2 24:2 25:2 26:10 27:9 
-0.448401052403862 -0.3372358717427151 -0.4642403269596333 -0.3487627106319317 -0.4347069887473075 -0.3831561192348649 -0.4739982253801016 -0.4482084320820509 -0.4076399873168918 -0.4079097270905025 -0.3351176514660719 -0.4967680583316877 -0.4002278945497478 -0.373830941989452 -0.4514040716311202 -0.4046942789448025 -0.3945641840088048 0.3814124544711816 0.4299302269055488 0.4286838423952954 0.2873728660129225 0.3740216498535834 0.2736302922224118 0.3682914376537986 0.3466064462314609 0.3643943858031476 0.3940379206007449 4:6 5:5 6:5 7:3 8:3 9:3 10:4 11:3 12:4 13:5 16:7 17:4 18:2 19:1 20:1 21:7 22:3 23:2 24:1 25:1 26:7 27:5 
-0.1230056066590279 -0.1034493843093462 -0.1160611490989578 -0.1077419108373667 -0.1599550141939651 -0.09993836055292298 -0.2435211754062601 -0.1500391634482922 -0.06020268472362141 -0 -0.1097313458513048 -0.1409558582663099 -0.1217777960899915 -0.09601517697605111 -0.3606814283288753 -0.01912924301490592 -0.09385912867841895 -0.1317620572953146 0 0.05476620277862566 0.06929603139980285 0.1263310100303808 0.07940454193655358 0.09437437373876613 0.1058767999866403 0.1073367886347341 0.106680394346463 4:5 5:3 6:3 7:2 8:3 9:2 10:3 11:2 12:3 13:3 16:7 17:5 18:2 19:1 20:1 21:1 22:8 23:4 
-0.681128469128887 -0.5492564996525639 -0.6732913361069643 -0.5511801824282896 -0.6624642554732279 -0.5833469366592837 -0.7454277934496484 -0.7193880454869615 -0.6723598034055759 -0.7517335663396242 -0.5991511269224481 -0.9110013949391671 -0.6255318301176931 -0.5818645574304792 -0.9236824921076605 -0.5407279433552028 -0.6005256608997029 -0.7654955453786816 0.804062001093877 0.6839885119943463 0.5304755095321264 0.6199012267903336 0.4493995353992834 0.5615895881701207 0.5983629229164067 0.6569927861253578 0.6053927865394467 4:4 5:3 6:3 7:2 8:2 9:2 10:2 11:2 12:2 13:4 16:6 17:5 18:1 19:2 21:1 22:7 23:4 
-0.06379695862921257 -0 -0.07563195583484189 -0 -0.02555337734610881 -0 -0.1474057251295586 -0.05962519522800566 -0.001695783238911105 -0.1141069417417256 -0 -0.2704262189249357 -0 -0 -0.2308785636110296 -0.728869129857623 -0 -0.1796985621812703 0.2117884205726675 0.1991899000418763 0 0 0 0 0 0 0 4:6 5:8 6:5 7:4 8:4 9:4 10:4 11:4 12:4 13:4 16:10 17:10 18:2 19:2 20:2 21:2 22:10 23:9 
-0.2580377252627562 -0.2099356443541188 -0.2696798341601316 -0.2442167878480687 -0.2622328743127404 -0.23273912529987 -0.3150421725599036 -0.2710808818165535 -0.2532189329862444 -0.2565650942408062 -0.1938940123906885 -0.359384917617119 -0.2085054787212491 -0.2280183790941363 -0.1143516898651352 -1 -0.1986644709959526 -0.3014083435351286 0.3847579358741961 0.3321499286229307 0.172391507173118 0.2200064989731995 0.1774193531846846 0.2263512614498658 0.2155097032516755 0.213521291599399 0.2353297273694349 4:5 5:5 6:4 7:3 8:3 9:3 10:3 11:3 12:3 13:3 16:8 17:7 18:2 19:1 20:2 21:1 22:8 23:6 
-0.9859823272092069 -0.8386889769728592 -1 -0.8591126103842669 -1 -0.9282342643052702 -0.9558724105827254 -0.9904661461400912 -1 -0.9409274975688335 -0.8460570126250063 -0.9321764065491047 -0.9633200738804172 -0.9120139812020606 -0.950736306850736 -1 -0.9480022530580429 -0.9932134058076089 0.9363718820203468 0.9365659690481647 0.7472553413340418 0.9131318365353414 0.7175204162197476 0.8962559365730748 0.8860396230885367 0.9022306602316652 0.9488997970081132 4:6 5:8 6:5 7:4 8:4 9:4 10:4 11:4 12:4 13:4 16:10 17:10 18:2 19:2 20:2 21:2 22:10 23:9 
-0.3024836596062279 -0.2392133585310512 -0.3166938587568351 -0.2438962586409964 -0.2732912429650484 -0.2721402950132628 -0.2564022223332666 -0.2924287831322999 -0.4750575795174313 -0.4394966642954036 -0.2390562551666895 -0.2981986736860405 -0.2952000757271038 -0.2676179720337738 -0.06761124629347419 -0.4879487501281726 -0.3597353675450848 -0.3561140961204212 0.5386159727651607 0.3189456119417027 0.2137342033497972 0.2536536614889176 0.2144713672638243 0.2642390864770233 0.2445769361176814 0.242743290939597 0.2747488762979498 4:5 5:4 6:3 7:2 8:4 9:2 10:2 11:2 12:3 13:3 16:8 17:5 18:1 19:2 21:2 22:7 23:5 
